{
 "bias": {
  "belief": -1.1952921570669721,
  "sentiment": 0.9522966357671075
 },
 "weights": {
  "belief": {
   "fairmont": 1.4423497552338298,
   "chicago": -13.97114883866264,
   "millenium": 0.4071450890532236,
   "park": -1.0019789605249454,
   "hotel": -0.6682637225289032,
   "provides": -0.3000729090719717,
   "rich": -1.80481199875013,
   "beautiful": -1.6549317779397978,
   "cultured": -0.9998958441828976,
   "atmosphere": -5.992188313717321,
   "stay": -3.569732319550047,
   "felt": -4.325799395896261,
   "like": -0.09592750755129664,
   "royalty": -4.0577023226747215,
   "unparalleled": -0.9998958441828976,
   "design": -1.4782835121341527,
   "schemes": -1.1309238620976982,
   "tranquil": -0.9998958441828976,
   "views": 3.6080616602437248,
   "mood": -1.3237162795542132,
   "entire": 2.386105613998542,
   "one": 0.3048640766586814,
   "bliss": -0.9998958441828976,
   "guest": 1.7182585147380482,
   "services": -1.2296635767107593,
   "department": 0.756067076346214,
   "secondtonone": -0.9998958441828976,
   "staff": -0.29517758566815955,
   "throughout": -1.0206228517862723,
   "obviously": -3.5071346734715134,
   "concerned": -0.9875013019477138,
   "pleasing": 1.170919695865014,
   "customer": 2.7900218727215913,
   "making": -5.042599729194875,
   "wonderful": -2.629205291115509,
   "possible": 1.0404124570357254,
   "dealing": -1.02489324028747,
   "member": -0.9662535152588272,
   "place": -5.936569107384647,
   "food": -6.1659202166441,
   "drink": 4.685449432350797,
   "selections": -1.9798979272992396,
   "vast": -0.9998958441828976,
   "fit": -3.7300281220706175,
   "king": 1.810436412873659,
   "definitely": -7.899802103947506,
   "recommend": -4.432871575877513,
   "friends": 0.5707738777210707,
   "colleagues": -0.09936464951567545,
   "also": 5.783772523695449,
   "greatly": -0.9998958441828976,
   "look": 2.723362149776065,
   "forward": -2.707113842308093,
   "next": -5.437454431830018,
   "boyfriend": 1.0264555775440058,
   "decided": -5.334548484532862,
   "conrad": 7.2404957816894076,
   "anniversary": -4.566399333402771,
   "second": 1.0521820643682949,
   "walked": -2.001249869805229,
   "immediately": 1.1317571086345173,
   "feel": -2.1298823039266743,
   "room": -4.157275283824601,
   "white": -1.0387459639620873,
   "luxurous": 0.9997916883657952,
   "bedding": -2.1421726903447555,
   "bed": 6.801583168419956,
   "plasma": -1.179564628684512,
   "tv": -0.9603166336839912,
   "subroofer": 0.9997916883657952,
   "surround": 0.9997916883657952,
   "sound": 5.405166128528278,
   "speakers": 1.5527549213623582,
   "impressed": 2.219560462451828,
   "reminded": 0.9600041662326841,
   "didnt": -0.966982605978544,
   "come": -5.780127070096865,
   "large": 7.726590980106239,
   "bathroom": 5.762108113738153,
   "w": 6.491823768357463,
   "tub": 5.485470263514217,
   "separate": 6.8383501718570985,
   "standin": 0.9997916883657952,
   "shower": 3.0312467451307157,
   "granite": 0.025518175190084365,
   "countertops": 0.9997916883657952,
   "robes": 0.10988438704301635,
   "slippers": -2.1293615248411624,
   "view": -4.324757837725237,
   "wasnt": -3.1096760754088115,
   "great": 6.151338402249766,
   "th": 7.263826684720342,
   "floor": 16.385064055827517,
   "really": 1.8919904176648266,
   "high": -0.6177481512342464,
   "enough": -0.19372981981043647,
   "see": -0.21018643891261324,
   "anything": 1.7359650036454535,
   "side": 0.7400270805124466,
   "building": 2.8918862618477243,
   "us": 10.005936881574836,
   "means": 2.8789709405270285,
   "go": 0.9827101343610041,
   "city": -1.2315383814186023,
   "prefect": 0.9997916883657952,
   "size": 2.4287053431934176,
   "amount": -3.2757004478700136,
   "time": 2.429226122278929,
   "actually": -2.272888240808249,
   "got": 1.7512759087595042,
   "rate": 13.285803562128946,
   "hotelscom": 2.85501510259348,
   "think": 2.322570565566087,
   "going": -10.22570565566087,
   "usually": -1.4108946984689095,
   "closer": 2.7106551400895738,
   "mid": 2.482137277366941,
   "ive": 6.073742318508488,
   "stayed": 5.835225497344027,
   "quite": 6.930840537444016,
   "hotels": 2.1028017914800543,
   "downtown": 9.387147172169566,
   "area": -5.121758150192688,
   "none": -1.8986563899593791,
   "ever": -5.257264868242891,
   "staying": -5.776377460681179,
   "trip": -7.478804291219665,
   "windy": -6.160191646703469,
   "chicagos": -6.347776273304864,
   "best": -2.9680241641495675,
   "recently": -9.568065826476408,
   "renovated": 3.1356108738673054,
   "bring": 5.399020935319237,
   "modern": -9.91532132069576,
   "day": 1.6470159358400167,
   "luxury": -15.243307988751171,
   "fine": -2.037600249973961,
   "dining": -3.203312154983856,
   "deluxe": -2.2429955212998647,
   "suites": -2.8819914592229976,
   "breath": -0.11873763149671909,
   "taking": 0.15915008853244453,
   "accommodate": -1.7700239558379336,
   "matter": -0.7758566815956671,
   "desire": -0.9993750650973857,
   "fabulous": 0.2992396625351526,
   "restaurant": -2.216539943755859,
   "dinning": -1.8391834183939173,
   "looking": -9.24059993750651,
   "pamper": -0.9993750650973857,
   "husband": -11.689615665034893,
   "teenage": 4.116654515154671,
   "son": 3.6790959275075514,
   "last": 1.8049161545672325,
   "august": 1.5221331111342569,
   "transferred": 4.508801166545152,
   "tour": -1.9436517029476097,
   "operator": 1.802833038225185,
   "sentiment": 2.6997187792938235,
   "terrible": -5.798562649723987,
   "complained": -2.8595979585459848,
   "asked": 2.5591084262056034,
   "sheraton": -1.4401624830746798,
   "arranged": 0.37641912300802,
   "many": 7.662951775856682,
   "life": -1.0686386834704718,
   "although": 1.3960004166232685,
   "know": 4.880116654515155,
   "largest": 4.202478908447037,
   "clean": -5.219352150817623,
   "every": 6.510259347984585,
   "amenity": 1.9943755858764711,
   "needed": -4.517550255181752,
   "superb": 3.606082699718779,
   "river": 9.584834913029892,
   "lake": 11.375273409019893,
   "entrance": 2.509738568899073,
   "hall": -0.7233621497760649,
   "imressive": 0.9990625976460785,
   "leisure": 2.6939902093531924,
   "centre": 4.5553588167899175,
   "fact": 2.0363503801687326,
   "areas": -0.049474013123632976,
   "fantastic": -2.53973544422456,
   "thing": -3.779293823560046,
   "though": -0.7837725236954484,
   "bellboy": -2.740339547963754,
   "receptionists": 0.19570878033538172,
   "concierge": 13.856160816581607,
   "courteous": 1.831580043745443,
   "helpful": 11.73929798979273,
   "conciergies": 0.9990625976460785,
   "spent": 0.6467034683887094,
   "fifteen": 1.9232371627955422,
   "minutes": -5.260806166024373,
   "phone": 9.571398812623684,
   "trying": 5.673054890115613,
   "locate": 0.9990625976460785,
   "specific": 0.3069471930007291,
   "pair": -1.9469846890948859,
   "trainers": 0.9990625976460785,
   "beyond": -0.7653369440683262,
   "call": 6.378502239350068,
   "would": -0.08926153525674407,
   "say": 3.7102385168211645,
   "cannot": -1.788563691282158,
   "reccomend": -0.8790750963441308,
   "highly": 3.204978648057494,
   "breakfast": 10.402458077283617,
   "buffet": 8.61743568378294,
   "cost": 2.775023435058848,
   "dollars": 6.074367253411103,
   "could": -3.6993021560254142,
   "eat": 2.146234767211749,
   "much": 0.6371211332152901,
   "take": 5.278825122383085,
   "long": 1.4659931257160712,
   "lasted": 1.826684720341631,
   "choice": 4.879075096344131,
   "enjoy": -2.6972190396833664,
   "booked": 9.154775544214145,
   "weekend": -1.839391730028122,
   "hard": -0.49869805228622016,
   "rock": -5.20654098531403,
   "location": 9.357046141026977,
   "well": 3.400687428392876,
   "good": 5.617852307051349,
   "reviews": 4.535256744089157,
   "found": 0.42339339652119573,
   "online": -3.3468388709509425,
   "however": -2.1666493073638162,
   "experience": -10.459222997604416,
   "fell": 1.8027288824080825,
   "short": -0.3887095094261015,
   "expectations": 3.0625976460785336,
   "arrived": -10.039995833767316,
   "hour": -7.152067492969483,
   "check": 2.836891990417665,
   "told": 4.649307363816269,
   "yet": -0.17352359129257366,
   "ready": -2.155192167482554,
   "left": -4.809186543068431,
   "awkwardly": -0.9985418185605666,
   "waiting": 3.124674513071555,
   "around": -7.9331319654202685,
   "another": 0.9392771586293094,
   "half": 0.3708988647015936,
   "want": -8.80876991980002,
   "leave": -7.535881678991772,
   "settling": -2.791480054161025,
   "interacted": -0.9985418185605666,
   "seemed": -5.667118008540777,
   "generally": -0.1376939902093532,
   "uninterested": -0.9985418185605666,
   "jobs": 1.7775231746693052,
   "appreciate": 0.34590146859702114,
   "hip": -0.6178523070513489,
   "popular": -2.4853661076971147,
   "younger": -0.006561816477450266,
   "crowd": -2.3719404228726173,
   "excessive": -0.9985418185605666,
   "noise": -3.2081033225705657,
   "night": 7.069263618373086,
   "past": 0.19081345693156962,
   "four": 4.622539318820956,
   "morning": 0.7562753879804187,
   "quieted": -2.8950109363607957,
   "two": 7.3390271846682635,
   "calls": 1.013019477137798,
   "front": 1.2392459118841788,
   "desk": 3.177377356525362,
   "make": -11.520154150609311,
   "complaints": -1.6903447557546087,
   "issue": -0.8815748359545881,
   "fairly": -1.9592750755129673,
   "light": -4.494844287053432,
   "sleeper": -1.1213415269242788,
   "woke": -3.3584001666493073,
   "several": -0.5303614206853453,
   "times": 5.744297469013644,
   "bringing": -0.19289657327361734,
   "earplugs": -0.9985418185605666,
   "youre": 4.136027497135715,
   "get": -2.520258306426414,
   "decent": -5.264764087074263,
   "sleep": -5.646911780022914,
   "overall": -7.25153629830226,
   "looked": -5.945734819289657,
   "nice": 1.818873034058952,
   "worth": -2.685553588167899,
   "paid": 2.9873971461306112,
   "ambassador": -3.897510675971253,
   "east": -4.945943130923862,
   "average": 1.0302051869596918,
   "mediocre": 0.9759400062493491,
   "worst": -3.6953442349755234,
   "bright": 3.0506197271117594,
   "spot": 1.7337777314863034,
   "friendly": 2.370690553067389,
   "doormen": 3.8982397666909696,
   "especially": -1.9074054785959795,
   "willing": 1.0323924591188418,
   "lackluster": -0.8342880949901053,
   "bad": -1.0705134881783147,
   "shape": -1.2178939693781898,
   "dirty": 4.644307884595355,
   "hair": 0.7008644932819498,
   "sink": -0.7248203312154984,
   "head": 4.172690344755755,
   "adjustment": 0.9984376627434642,
   "work": -0.261222789292782,
   "properly": -3.183105926465993,
   "water": 4.459743776689928,
   "pressure": 1.072179981251953,
   "low": 4.469846890948859,
   "temperature": 0.9739610457244037,
   "warm": 0.6224351630038538,
   "first": -1.3925632746588896,
   "visit": -11.201333194458911,
   "decor": 2.984480783251745,
   "lobby": 4.796583689199042,
   "hallways": 1.6733673575669201,
   "rooms": -5.170607228413707,
   "outofdate": 0.9984376627434642,
   "oldfashioned": -0.7981460264555775,
   "liked": -6.024997396104572,
   "vending": 0.9984376627434642,
   "machine": 2.430475992084158,
   "business": 5.881262368503281,
   "center": -0.4339131340485366,
   "free": 2.1208207478387666,
   "internet": 1.207999166753463,
   "access": -2.071659202166441,
   "feature": 0.16873242370586397,
   "easy": -0.4704718258514738,
   "use": 1.0876991980002084,
   "okay": 0.4955733777731486,
   "bit": 5.301635246328507,
   "hike": 0.04187063847515884,
   "tourist": 3.618373086136861,
   "destinations": 0.9984376627434642,
   "based": 5.97291948755338,
   "current": -1.7483595458806374,
   "conditions": 0.9984376627434642,
   "underwent": 0.9984376627434642,
   "renovations": 1.7925216123320489,
   "update": 1.82314342256015,
   "bathrooms": 0.5444224559941673,
   "might": 1.7061764399541715,
   "inclined": 0.9984376627434642,
   "read": 1.7848140818664722,
   "swissotel": 7.205811894594313,
   "service": -0.31038433496510787,
   "always": 3.346422247682533,
   "poor": -2.0409332361212376,
   "comes": -1.9018852202895533,
   "cold": -3.604103739193834,
   "unless": -2.7000312467451306,
   "supposed": 1.020310384334965,
   "rather": -2.604624518279346,
   "super": 1.1652952817414852,
   "homewood": -3.5396312884074574,
   "hilton": -11.07905426518071,
   "group": 5.273721487345068,
   "located": 0.4468284553692324,
   "close": -6.795021351942506,
   "sights": -0.9980210394750547,
   "visited": -4.90698885532757,
   "extensive": -1.8879283407978336,
   "construction": 16.675554629726072,
   "along": -1.5904593271534215,
   "michigan": 12.143422560149984,
   "avenue": 5.4283928757421105,
   "awakened": -1.8427247161753983,
   "right": 5.119987501301948,
   "jackhammering": -0.9980210394750547,
   "bulldozers": -0.9980210394750547,
   "reserved": -4.1836267055515055,
   "basic": -0.5027601291532132,
   "suite": 6.566295177585668,
   "pm": 8.813769399020936,
   "checkin": -2.4630767628372046,
   "management": 1.4926570148942817,
   "apologized": -1.6678470992604937,
   "offer": -2.6480574940110406,
   "sort": -4.634100614519321,
   "compensation": -3.7304447453390273,
   "inconvenience": -0.6845120299968753,
   "quickly": -0.39360483282991354,
   "discovered": -2.7372148734506823,
   "hot": -0.4766170190605145,
   "relocated": -0.9980210394750547,
   "apologies": -2.787522133111134,
   "trouble": -2.630871784189147,
   "finally": -16.991459222997605,
   "settled": -1.9201124882824705,
   "welcome": 1.418393917300281,
   "dinner": -3.1366524320383293,
   "reception": 5.621497760649932,
   "wine": -0.9963545464014165,
   "beer": 0.3405895219247995,
   "frazzled": -0.9980210394750547,
   "issues": 3.73013227788772,
   "checking": 0.06707634621393604,
   "tasted": -4.390063535048433,
   "point": -2.535152588272055,
   "suggested": -0.9527132590355172,
   "complementary": -1.812311217581502,
   "grocery": -1.578689719820852,
   "shopping": 2.5403603791271743,
   "idea": 0.7611707113842308,
   "since": 4.24237058639725,
   "already": 3.7239870846786793,
   "tired": -4.540360379127174,
   "unfortunately": 1.796687845016144,
   "took": -6.402562233100719,
   "three": -4.083637121133215,
   "hours": -8.933756900322884,
   "deliver": -1.6646182689303197,
   "groceries": -0.008749088636600354,
   "bill": 1.9276117071138423,
   "far": 1.1891469638579315,
   "expected": -4.743464222476826,
   "disappointed": -1.858035621289449,
   "understand": 0.8146026455577544,
   "problems": 3.6863868347047184,
   "may": 7.423705863972502,
   "arise": -0.9980210394750547,
   "nothing": 2.2762212269555255,
   "unacceptable": -0.009165711905009895,
   "suggest": -3.3419435475471304,
   "friend": 5.180814498489741,
   "visiting": 0.9853140297885636,
   "girl": -5.379856264972399,
   "gave": -4.916050411415478,
   "smoking": -4.240391625872305,
   "nonsmoking": -7.692844495365066,
   "elevators": 6.663055931673784,
   "loud": -5.770232267472139,
   "new": 1.4836996146234767,
   "door": 2.39214665139048,
   "spilled": 0.9979168836579523,
   "wet": 3.620872825747318,
   "carpet": 1.000833246536819,
   "public": 4.622435163003853,
   "transportation": 3.6776377460681178,
   "amazing": 1.3009061556087906,
   "dont": 0.22580981147797105,
   "need": 7.623060097906468,
   "car": 5.7784605770232265,
   "anywhere": 3.5052598687636705,
   "train": 3.5342151859181334,
   "bus": 5.745547338818873,
   "fast": -1.011665451515467,
   "recommendations": 2.1179043849598997,
   "ginos": 2.8346005624414126,
   "bars": 7.516821164462035,
   "tornado": 0.9979168836579523,
   "knocked": 1.0229142797625248,
   "windows": 6.642224768253307,
   "sears": 0.13373606915946257,
   "tower": 3.6343089261535257,
   "cool": 2.0567649203208,
   "loved": -2.7265909801062387,
   "hardest": 0.9979168836579523,
   "rain": 1.8554317258618893,
   "storm": 1.9587542964274556,
   "seen": 2.3954796375377567,
   "star": 9.732944484949485,
   "akk": 0.99781272784085,
   "modernlooking": 0.99781272784085,
   "bellhops": 1.9612540360379127,
   "outside": -1.5173419435475473,
   "help": -0.6846161858139778,
   "bags": -7.2401833142381005,
   "open": 7.360587438808458,
   "doors": 3.5615040099989583,
   "arrive": -3.620664514113113,
   "late": 4.8136652432038325,
   "additionally": 0.20247890844703675,
   "trash": -2.56681595667118,
   "flowers": 6.178835537964796,
   "strewn": 0.18560566607645038,
   "bottles": 1.578377252369545,
   "glasses": -0.9885428601187376,
   "near": 3.1060306218102283,
   "seating": 1.8130403083012185,
   "thats": 3.97291948755338,
   "welcoming": -0.2670555150505156,
   "sight": -4.167690865534841,
   "provided": 2.663576710759296,
   "actual": 1.2329965628580357,
   "farther": 0.99781272784085,
   "preferred": 3.824184980731174,
   "andi": 0.99781272784085,
   "little": 5.306218102281012,
   "south": 0.9662535152588272,
   "rush": 1.7575252577856473,
   "street": 12.590667638787627,
   "lot": 5.001458181439434,
   "fun": 2.7291948755337985,
   "positives": -0.005416102489324029,
   "north": 1.588688678262681,
   "end": -0.7483595458806374,
   "magnificant": -0.7841891469638579,
   "mile": 4.129778148109572,
   "spacious": 2.568899073013228,
   "beautifully": -5.635975419227163,
   "appointed": -0.23893344443287168,
   "attention": -5.832100822830955,
   "detail": 0.25539006353504845,
   "quality": 0.1481095719195917,
   "excellent": 3.565774398500156,
   "professional": 2.998125195292157,
   "perfect": -3.5999375065097388,
   "care": 6.245182793459015,
   "moment": -1.531090511405062,
   "greeted": -0.8743880845745234,
   "upon": -2.4725549421935216,
   "arrival": -1.48515779606291,
   "taxi": -0.17310696802416414,
   "rooftop": 1.9513592334131862,
   "barrestaurant": -0.9973961045724403,
   "lite": -0.17269034475575462,
   "meal": -4.113425684824497,
   "refreshing": -0.9973961045724403,
   "cocktail": -1.762837204457869,
   "werent": -0.29601083220497865,
   "negatives": -0.005416102489324029,
   "boutique": 1.987292990313509,
   "anyone": -7.075721279033434,
   "choose": 3.0810332257056556,
   "due": 1.877512759087595,
   "ratings": 0.0484324549526091,
   "terrace": -1.6191021768565774,
   "occuppied": 0.9971877929382356,
   "private": 0.9971877929382356,
   "corporate": -1.432975731694615,
   "events": 3.2846578481408186,
   "duration": 1.905114050619727,
   "recommended": -3.7087803353817312,
   "indoors": 2.347255494219352,
   "insulted": 0.9971877929382356,
   "bartender": 3.429955212998646,
   "order": 4.345172377877304,
   "la": 1.0195812936152484,
   "carte": 0.9971877929382356,
   "keep": 4.8383501718570985,
   "mind": 2.9007395063014267,
   "paying": 1.8003332986147276,
   "extra": -1.5489011561295698,
   "note": 1.5674408915737943,
   "minibar": 8.602853869388605,
   "empty": 0.6478491823768358,
   "departure": 2.774710967607541,
   "omni": 2.987605457764816,
   "better": 0.16706593063222586,
   "spending": 1.5938964691178001,
   "talbott": -0.9035517133631913,
   "claims": -4.736277471096761,
   "premiere": -0.9970836371211332,
   "small": 6.125403603791272,
   "experiencing": -1.8260597854390168,
   "environment": -3.354442245599417,
   "general": 2.2741381106134777,
   "confidence": -0.9970836371211332,
   "isnt": -1.8569940631184252,
   "true": -1.78689719820852,
   "made": -2.4722424747422145,
   "posted": -2.555150505155713,
   "website": -6.4554733881887305,
   "came": -3.7837725236954483,
   "collect": -0.9970836371211332,
   "forced": -3.8440787417977296,
   "lug": 0.7952296635767108,
   "inside": -1.9100093740235393,
   "doorman": 5.818456410790542,
   "polite": -4.685970211436309,
   "failed": 1.8782418498073117,
   "even": -2.0312467451307157,
   "leaving": -1.095719195917092,
   "fend": -0.9970836371211332,
   "carry": -3.3372565357775232,
   "lighting": 0.001249869805228622,
   "dark": 0.9294865118216853,
   "dingy": -2.5180710342672636,
   "setting": -0.8304343297573169,
   "glossy": -0.9970836371211332,
   "veneer": -0.9970836371211332,
   "attempt": -0.9970836371211332,
   "hide": -0.9970836371211332,
   "degenerate": -0.9970836371211332,
   "state": -0.9240704093323612,
   "hadnt": -2.770128111655036,
   "vacuumed": -0.9970836371211332,
   "washed": 0.8288719925007811,
   "corners": -0.13706905530673888,
   "walls": 1.7785647328403291,
   "met": 3.040829080304135,
   "ceilings": -0.9970836371211332,
   "visible": -0.05624414123528799,
   "damage": -0.9970836371211332,
   "wait": -9.405166128528279,
   "five": -4.777210707217998,
   "someone": -8.885532757004478,
   "went": -1.9036558691802936,
   "uncomfortable": 1.9982293511092595,
   "ran": -3.1632121653994374,
   "ten": 2.4163108009582337,
   "without": -1.512967399229247,
   "receiving": -0.49942714300593694,
   "ordered": 3.002499739610457,
   "fitness": -10.577231538381419,
   "selection": -1.9892719508384544,
   "machines": 2.795125507759608,
   "caused": -0.08592854910946776,
   "lines": 0.8838662639308406,
   "certainly": -5.65107801270701,
   "probably": 6.975002603895428,
   "enemies": -0.9970836371211332,
   "either": -4.557129465680658,
   "away": -9.017185709821893,
   "im": -1.3645453598583481,
   "catching": 2.6832621601916467,
   "months": 2.5154671388397043,
   "dear": 1.6939902093531924,
   "hyatt": -4.66680554108947,
   "regency": -6.184459952088324,
   "october": 1.6939902093531924,
   "town": 2.9819810436412872,
   "imo": 1.6939902093531924,
   "lovely": 2.9846890948859492,
   "comfortable": 3.3312154983855846,
   "pretty": -5.17508592854911,
   "convenient": 0.1951880012498698,
   "attractions": 3.45807728361629,
   "clubing": 1.6939902093531924,
   "division": 2.605145297364858,
   "st": 6.46245182793459,
   "getting": 2.593271534215186,
   "cabs": 2.0854077700239557,
   "back": -1.7427351317571087,
   "forth": 3.3232996562858035,
   "theres": -1.1147797104468284,
   "bother": -0.23976669096969067,
   "parking": 2.78429330278096,
   "usual": 3.3088219977085718,
   "expensive": -1.8255390063535049,
   "able": 1.6485782730965524,
   "sunday": 4.069159462555984,
   "exactly": 4.087699198000208,
   "traffic": -4.145609832309135,
   "bears": 0.7938756379543798,
   "homegame": 1.6939902093531924,
   "busier": 1.6939902093531924,
   "part": 3.434642224768253,
   "hotwire": 2.2469534423497555,
   "downright": 1.6939902093531924,
   "steal": 0.7551296739922925,
   "bets": -0.9965628580356213,
   "traveling": -3.905843141339444,
   "beds": 2.9021976877408604,
   "everything": 0.9000104155817102,
   "neat": -2.1715446307676283,
   "wifi": -5.543589209457348,
   "available": -3.156025414019373,
   "guitar": -0.9965628580356213,
   "jam": -0.9965628580356213,
   "headphones": -0.9965628580356213,
   "chance": -1.07249244870326,
   "spa": -4.1765441099885425,
   "tell": 1.7108634517237788,
   "relaxing": -8.159670867617956,
   "base": -0.00020831163420477033,
   "bar": 5.7205499427143005,
   "couple": 5.30871784189147,
   "drinks": 6.112279970836371,
   "shop": 0.8493906884699511,
   "bought": -1.9455265076554527,
   "bunch": 0.7558587647120092,
   "shirts": -0.9965628580356213,
   "home": -4.749192792417457,
   "family": 1.302572648682429,
   "coolest": 0.9812519529215706,
   "different": 6.774086032704926,
   "enjoyed": -1.1805020310384335,
   "mine": -2.534840120820748,
   "cheaper": 0.3843349651078013,
   "fleabag": 0.996458702218519,
   "motel": -1.778252265389022,
   "eye": 0.3536089990625977,
   "specials": 0.8673054890115612,
   "prime": 1.1418602228934485,
   "double": 0.28257473179877096,
   "complaint": 0.9322987188834496,
   "storage": 1.5494219352150818,
   "mechanical": 0.996458702218519,
   "employees": -1.1505051557129464,
   "sneak": 0.996458702218519,
   "talk": 1.8722008124153735,
   "vent": 2.738777210707218,
   "hear": 4.574523487136757,
   "plainasday": 0.996458702218519,
   "fortunately": -0.6507655452557025,
   "kept": -2.7865847307572125,
   "weird": 2.8570982189355276,
   "move": -0.515675450473909,
   "theme": 1.7381522758046037,
   "unbearably": 0.9963545464014165,
   "controls": -0.8590771794604729,
   "wall": 3.7613790230184354,
   "thank": -0.27497135715029686,
   "goodness": 0.01958129361524841,
   "window": 3.186543068430372,
   "opened": 4.262576814915113,
   "wed": -2.4742214352671597,
   "cooked": 0.07145089053223623,
   "alive": 0.9963545464014165,
   "course": 4.692323716279554,
   "let": 3.782314342256015,
   "ave": 5.289761483178836,
   "combined": 0.9963545464014165,
   "neighbors": -2.213623580876992,
   "slamming": 1.8657431517550256,
   "thrown": -0.8404332881991459,
   "lock": 0.9963545464014165,
   "seconds": 0.19300072909071972,
   "lively": 0.9963545464014165,
   "stuffy": -0.8535569211540465,
   "burn": 0.9963545464014165,
   "marks": 0.35642120612436207,
   "lead": 2.786168107488803,
   "believe": -6.978127278408499,
   "nasty": 0.9963545464014165,
   "smokers": 0.021664409957296116,
   "occupied": 0.9963545464014165,
   "occasions": 1.907509634413082,
   "wife": -0.8046036871159254,
   "happy": -0.39756275387980416,
   "aveda": 0.0042703885011977916,
   "bath": -0.1784189146963858,
   "tho": 0.9963545464014165,
   "pricey": -1.5276533694406833,
   "concentrates": 1.792313300697844,
   "conferences": 2.8181439433392357,
   "normal": 1.6763878762628892,
   "particular": 1.1423810019789604,
   "odds": 1.792313300697844,
   "checked": -2.8484532861160297,
   "conference": 9.19518800124987,
   "guy": 3.5030725966045204,
   "main": 2.554108946984689,
   "hold": 5.582231017602333,
   "que": 1.792313300697844,
   "given": -4.416102489324029,
   "information": 4.1830017706488904,
   "rang": 0.8657431517550256,
   "stage": 1.792313300697844,
   "find": 3.2768461618581397,
   "laptop": 0.022601812311217582,
   "rude": 0.3081970628059577,
   "picky": -1.5677533590251016,
   "ample": -0.6258723049682324,
   "stuff": 3.2521612332048746,
   "bonus": -1.0613477762733048,
   "treated": -2.040099989584418,
   "afraid": -0.9960420789501093,
   "id": 2.462660139568795,
   "lost": 1.9701072804916155,
   "helped": -2.8609519841683158,
   "navigate": -0.2547651286324341,
   "stmichigan": -0.9960420789501093,
   "europe": 0.38287678366836786,
   "mostly": -0.746068117904385,
   "nights": 4.565253619414644,
   "single": -2.4084991146755548,
   "woman": 1.1794604728674096,
   "alone": -0.4102697635662952,
   "strange": 0.6923237162795541,
   "safe": 1.6109780231225914,
   "rest": -2.2667430475992085,
   "dreadful": 0.7723153838141861,
   "among": -0.1672742422664306,
   "poorly": 1.5774398500156233,
   "trained": 1.633892302885116,
   "encountered": 2.0763462139360485,
   "ask": 0.20695760858243933,
   "slam": 3.4796375377564837,
   "supply": 4.143630871784189,
   "closet": 2.7502343505884803,
   "adjacent": 2.61701906051453,
   "almost": -1.1983126757629412,
   "random": 0.7125299447974169,
   "checks": 1.2561191542547652,
   "budget": 1.0780127070096865,
   "hinged": 1.6891990417664826,
   "sale": 1.6891990417664826,
   "peanuts": 1.6891990417664826,
   "roomservice": 1.6891990417664826,
   "equipped": 1.6891990417664826,
   "walkietalkies": 1.6891990417664826,
   "megaphones": 1.6891990417664826,
   "sleeping": -3.55765024476617,
   "vacation": -8.346109780231226,
   "massive": 2.597125299447974,
   "conveniently": 0.9148005416102489,
   "excluded": 1.6891990417664826,
   "elevator": 11.447765857723153,
   "workers": 1.3919383397562755,
   "used": -0.5404645349442766,
   "discount": 3.1707113842308092,
   "box": 1.826372252890324,
   "alley": 1.6891990417664826,
   "immaculate": -0.7248203312154984,
   "extremely": 2.542964274554734,
   "delicious": -0.3375690032288303,
   "fixed": -0.8635558795958754,
   "perfection": -1.3890219768774086,
   "inviting": 2.3059056348297053,
   "particularly": -1.586501406103531,
   "crappy": -0.945630663472555,
   "property": 4.459014685970211,
   "numerous": -0.20497864805749402,
   "gold": 0.579210498906364,
   "coast": -0.8636600354129778,
   "saw": 2.1680033329861472,
   "book": 2.602958025205708,
   "reminder": -0.9942714300593688,
   "pay": -0.4257889803145506,
   "gorgeous": -1.7285699406311843,
   "appears": -0.9942714300593688,
   "match": -0.9942714300593688,
   "photos": -0.2922612227892928,
   "assigned": 1.7854390167690866,
   "run": -1.4315175502551818,
   "put": 6.621601916467035,
   "quick": -0.06822206020206228,
   "coat": -0.9942714300593688,
   "paint": 0.032809082387251325,
   "furniture": -0.8191855015102594,
   "old": 5.745026559733361,
   "fixtures": -1.0085407770023955,
   "rusty": -0.9942714300593688,
   "smelled": -11.361420685345276,
   "must": -3.09301114467243,
   "mildew": -0.9231330069784398,
   "airconditioning": -0.9942714300593688,
   "advertised": -3.7016977398187687,
   "inwindow": -0.9942714300593688,
   "unit": -2.7339860431205083,
   "sounded": -0.8984480783251745,
   "leg": -2.9136548276221226,
   "longer": -1.7494011040516613,
   "requested": 0.31017602333090305,
   "refund": -0.6284762003957921,
   "please": -0.09530257264868243,
   "favor": -0.8277262785126549,
   "properties": -4.427559629205291,
   "hampton": -0.9942714300593688,
   "inn": 3.6391000937402356,
   "garden": -0.11884178731382147,
   "nearby": 0.6037912717425268,
   "often": 0.0694719300072909,
   "specialoffers": -0.9942714300593688,
   "arent": -0.9942714300593688,
   "save": -1.0818664722424747,
   "potentially": -0.9942714300593688,
   "unpleasant": 2.001354025622331,
   "weve": 2.166336839912509,
   "returned": 5.37860639516717,
   "affinia": -7.505884803666285,
   "delightful": 0.0007290907197166961,
   "thanks": 2.031350900947818,
   "tripadvisor": 0.9941672742422665,
   "prepared": 0.5747317987709614,
   "major": 1.1053015310905114,
   "facade": 0.1530048953234038,
   "entranceit": 0.9941672742422665,
   "mess": 3.4293302780960317,
   "remain": 0.9941672742422665,
   "incomplete": 0.9941672742422665,
   "unavailable": 0.9941672742422665,
   "parts": 1.8254348505364024,
   "stickers": 0.9941672742422665,
   "things": -2.388917821060306,
   "disappointing": 3.229038641808145,
   "early": 1.6269138631392563,
   "gracious": 2.833142381001979,
   "greeting": 2.209665659827101,
   "fab": 0.9941672742422665,
   "sparkling": 0.9941672742422665,
   "fresh": 0.37641912300802,
   "outstanding": 0.09873971461306114,
   "led": 1.9792729923966252,
   "bride": 0.9941672742422665,
   "nearly": -0.674408915737944,
   "years": 11.313196542026873,
   "saying": 4.49911467555463,
   "youngershe": 0.9941672742422665,
   "likenew": 0.9941672742422665,
   "stylish": 0.09405270284345381,
   "visitor": 1.893761066555567,
   "appreciated": 2.945630663472555,
   "steps": 0.03343401728986564,
   "magnificient": 1.9165711905009895,
   "ambiance": 2.153317362774711,
   "dedicated": 0.9941672742422665,
   "chic": 1.0434329757316947,
   "decorating": 1.9773981876887825,
   "elements": 0.9941672742422665,
   "future": 1.6354546401416519,
   "shortbut": 0.9941672742422665,
   "sweet": 1.9604207895010937,
   "experiences": -0.06259764607853349,
   "tried": -1.5640037496094157,
   "key": -0.29194875533798564,
   "keys": -0.8963649619831268,
   "wouldnt": 1.029996875325487,
   "slight": -1.893969378189772,
   "disrepair": -0.9939589626080617,
   "burnt": -0.5099468805332779,
   "bulb": -0.9939589626080617,
   "unmade": -0.9939589626080617,
   "ok": 2.9809394854702633,
   "person": -6.114883866263931,
   "crowded": -3.727111759191751,
   "owners": -0.9939589626080617,
   "stopped": -2.572127903343402,
   "caring": -0.9939589626080617,
   "maintenance": 0.943755858764712,
   "fix": 0.17289865638995938,
   "housekeeping": -0.18498073117383607,
   "hopefully": -1.4979689615665035,
   "act": -0.013123632954900532,
   "together": -1.704405791063431,
   "expecting": -2.409124049578169,
   "accommodations": -5.277262785126549,
   "considering": -2.4293302780960317,
   "price": 0.3702739297989792,
   "blankets": 0.6614935944172482,
   "heating": -3.4444328715758776,
   "system": -1.989167795021352,
   "dysfunctional": -0.9937506509738568,
   "meeting": 0.5255702530986356,
   "still": 5.415477554421415,
   "cleaned": -6.358608478283513,
   "afternoon": 1.3616289969794813,
   "replacement": 0.692532027913759,
   "towels": -4.831371732111238,
   "coming": 0.39131340485366106,
   "shuttle": 1.5074471409228205,
   "airport": 2.6226434746380587,
   "advertises": -1.9506301426934693,
   "distance": 2.150400999895844,
   "instead": 3.1290490573898553,
   "plane": -0.9937506509738568,
   "stuck": -3.2560149984376627,
   "offered": 1.0869701072804916,
   "pda": -0.9934381835225498,
   "kiosk": -0.9934381835225498,
   "hypoallergenic": -3.6930528069992707,
   "air": -2.4163108009582337,
   "purification": -1.6855535881678991,
   "systems": -0.9934381835225498,
   "gym": 2.374856785751484,
   "ihome": -4.231538381418602,
   "stereo": -0.9934381835225498,
   "ipod": -0.07342985105718158,
   "docking": -2.0785334860951985,
   "station": -1.382876783668368,
   "flat": -3.790750963441308,
   "screen": -3.66420164566191,
   "video": -1.1491511300906156,
   "demand": -1.8794917196125405,
   "assisting": -0.9934381835225498,
   "finding": -2.9525049474013123,
   "award": -0.9934381835225498,
   "winning": -0.9934381835225498,
   "definetly": -5.24278720966566,
   "return": 2.4568274138110615,
   "trips": 0.0035412977814810957,
   "called": 6.591605041141547,
   "reservations": -2.828247057598167,
   "line": 9.624101656077492,
   "beginning": 0.12207061764399542,
   "december": 0.5404645349442767,
   "local": -2.1149880220810333,
   "corporation": 0.9933340277054473,
   "reservation": 1.424330798875117,
   "email": 3.7145089053223623,
   "confirmation": -0.9237579418810541,
   "handicapped": 0.9933340277054473,
   "accessible": 1.3905843141339445,
   "year": -1.2887199250078116,
   "regular": 1.3673575669201126,
   "said": 11.460160399958337,
   "impossible": 0.20518695969169878,
   "upgrade": 3.501614415165087,
   "disabled": 0.9933340277054473,
   "needs": 4.499322987188835,
   "cancel": 5.205811894594313,
   "anymore": -1.5321320695760858,
   "everyone": -1.7504426622226852,
   "elegant": -2.604728674096448,
   "classy": 0.17529424018331424,
   "bose": -0.8990730132277888,
   "pleasant": -2.4967190917612747,
   "perfectly": -2.9105301531090513,
   "rested": -3.1144672429955214,
   "upstairs": 0.8662639308405374,
   "awful": -3.4412040412457037,
   "neighboring": 0.9371940422872618,
   "roofs": 0.9930215602541402,
   "eventually": 1.8551192584105822,
   "corner": 3.240079158420998,
   "roof": 2.8760545776481616,
   "partial": 0.42672638266847207,
   "horrible": -4.684407874179773,
   "yellowy": 0.9930215602541402,
   "wallpaper": 1.08384543276742,
   "bedsheets": 0.9930215602541402,
   "lucky": 0.2729923966253515,
   "priceline": 15.386938860535361,
   "luckier": 0.992709092802833,
   "knickerbocker": 0.07749192792417456,
   "cozy": 1.2488282470575982,
   "reading": -1.685241120716592,
   "guests": 2.0195812936152486,
   "somewhat": -2.3413186126445162,
   "scared": 0.23070513488178315,
   "frequent": 0.8138735548380377,
   "traveler": 0.5844182897614831,
   "rating": 6.0871784189146965,
   "yes": 6.3522549734402665,
   "historic": 3.596187897094053,
   "big": -5.218310592646599,
   "heart": -3.3243412144568274,
   "luxurious": -10.477971044682846,
   "filled": -2.533486095198417,
   "reams": -0.9921883137173211,
   "class": 0.5485886886782627,
   "style": 0.7872096656598271,
   "adorned": -0.9921883137173211,
   "wired": -0.9921883137173211,
   "never": 4.871992500781168,
   "wireless": 1.6814915113009061,
   "connections": -0.9921883137173211,
   "knows": -1.0502031038433497,
   "reliable": -0.9921883137173211,
   "connectivity": -1.8211644620352048,
   "included": -4.554733881887303,
   "additional": -1.6292052911155088,
   "charge": 2.5212998645974376,
   "magnificentdowntown": -0.9921883137173211,
   "spectacular": -3.2757004478700136,
   "weather": -3.738985522341423,
   "permits": -0.9921883137173211,
   "breathtaking": -2.83230913446516,
   "relax": -11.784084991146756,
   "gentle": -0.9921883137173211,
   "breeze": -0.9921883137173211,
   "evening": 1.9716696177481512,
   "finest": -1.995937923133007,
   "gourmet": -0.9921883137173211,
   "foods": -0.9921883137173211,
   "forget": -2.7307572127903343,
   "health": 0.7182585147380481,
   "aerobic": -0.9921883137173211,
   "anaerobic": -0.9921883137173211,
   "workout": -0.13467347151338402,
   "equipment": -0.5822310176023331,
   "attentive": -0.13217373190292678,
   "concierges": -0.9921883137173211,
   "whatever": -1.438912613269451,
   "pampered": -0.9921883137173211,
   "hi": 2.2172690344755757,
   "ho": 1.9839600041662326,
   "heres": 0.04478700135402562,
   "skinny": 0.9919800020831163,
   "hoping": -2.407249244870326,
   "cece": 0.9919800020831163,
   "deville": 0.9919800020831163,
   "teenagers": 1.9839600041662326,
   "spend": -5.943964170398917,
   "earned": 0.9919800020831163,
   "money": 0.7732527861681076,
   "sister": -1.565982710134361,
   "overnighter": 0.9919800020831163,
   "way": -3.3800645766066033,
   "wisconsin": 0.9919800020831163,
   "chose": 5.2079991667534635,
   "mean": 1.2738256431621706,
   "carbon": 0.9919800020831163,
   "carbide": 0.9919800020831163,
   "sits": 0.1649828142901781,
   "middle": 2.5360899906259764,
   "computers": 1.9381314446411833,
   "cardio": 2.368294969274034,
   "individual": -0.8634517237787731,
   "tvs": 0.04114154775544221,
   "phones": 1.9790646807624206,
   "case": 2.0750963441308197,
   "forgot": -0.9555254660972815,
   "protein": 0.9919800020831163,
   "post": 0.9919800020831163,
   "snack": 1.790126028538694,
   "valet": 3.341526924278721,
   "pistachio": 0.9919800020831163,
   "shells": 0.9919800020831163,
   "painted": 0.10780127070096865,
   "purplish": 0.9919800020831163,
   "gray": 0.9919800020831163,
   "prince": 0.9919800020831163,
   "picture": 1.2373711071763358,
   "bob": 0.9919800020831163,
   "marley": 0.9919800020831163,
   "hanging": 1.7681491511300906,
   "girls": 3.195708780335382,
   "thought": -4.802312259139673,
   "fuzzy": 0.16227476304551608,
   "throw": 1.9599000104155817,
   "pillows": -1.49213623580877,
   "full": 4.495260910321841,
   "cable": 0.04114154775544214,
   "bunny": 0.1630038537652328,
   "ears": 0.9919800020831163,
   "cafe": 2.833767315904593,
   "memorabilia": 0.699822935110926,
   "pool": -2.2930944693261117,
   "knew": -2.561608165816061,
   "wrap": 0.9919800020831163,
   "wont": -5.350796792000834,
   "drop": 1.8432454952609103,
   "benjamins": 0.9919800020831163,
   "palmer": 1.9381314446411833,
   "house": 0.1489428184564108,
   "whole": -0.5912925736902406,
   "review": 3.8340797833559,
   "avoid": 4.394125611915426,
   "costs": 3.2800749921883137,
   "assistant": 2.694719300072909,
   "billed": 0.7933548588688678,
   "card": 10.524632850744714,
   "voicemails": 2.604416206645141,
   "emails": 0.8343922508072076,
   "truely": 1.7835642120612436,
   "hideous": 1.7835642120612436,
   "experieince": 1.7835642120612436,
   "starwood": 3.6694094365170296,
   "resort": 1.7835642120612436,
   "days": -0.6710759295906676,
   "week": 2.8732423705863974,
   "statement": 0.9388605353608999,
   "strives": -0.9909384439120925,
   "customers": -1.3211123841266534,
   "satisfied": -6.0089574002708055,
   "warmly": -0.1396729507342985,
   "incredibly": -0.11707113842308092,
   "topknotch": -0.9909384439120925,
   "served": 4.560149984376627,
   "awardwinning": -0.9909384439120925,
   "pump": 1.1531090511405062,
   "die": -3.449432350796792,
   "wow": 1.0427038850119779,
   "event": 4.19695865014061,
   "smiles": 1.8352254973440267,
   "including": 8.505364024580773,
   "bartenders": 1.9538589730236433,
   "doesnt": 6.342256014998438,
   "hospitality": 3.85720237475263,
   "stated": 1.9274033954796375,
   "employee": 1.0377044057910634,
   "specifically": -0.9646911780022914,
   "referring": 1.9474013123632954,
   "employers": 0.9904176648265806,
   "set": 3.4831788355379647,
   "wrong": -0.27767940839495886,
   "plain": -1.4707842933027808,
   "ponderosa": 0.9904176648265806,
   "swisshotel": 1.9596916987813768,
   "oh": 4.439120924903656,
   "lets": 0.8833454848453286,
   "telling": 1.4903655869180295,
   "unsolicited": 0.9904176648265806,
   "man": 3.795125507759608,
   "wonder": 0.3265284866159775,
   "stays": 2.8481408186647226,
   "ouch": 0.9904176648265806,
   "asking": 2.069263618373086,
   "something": 0.8870950942610145,
   "excuses": 0.9904176648265806,
   "bet": 0.9904176648265806,
   "overpriced": -1.6821164462035205,
   "word": 1.7173211123841265,
   "describe": -1.922924695344235,
   "reeked": -1.8762628892823665,
   "smoke": -6.916779502135194,
   "slow": -1.7478387667951254,
   "working": 2.4314133944380796,
   "stain": -0.9426101447765858,
   "pillow": -4.683262160191647,
   "chairs": -1.5950421831059265,
   "broken": 3.2893448599104262,
   "dead": -2.777210707217998,
   "bug": -1.881574835954588,
   "credit": 1.5172377877304446,
   "twice": 0.8812623685032809,
   "weeks": -1.287157587751276,
   "reverse": -0.9902093531923758,
   "millennium": -10.154879700031247,
   "standard": -0.2841370690553067,
   "changes": -0.17727320070825955,
   "difference": -0.868034579731278,
   "deck": -1.1572752838246017,
   "boat": 0.36631600874908865,
   "drab": -0.9901051973752734,
   "special": 0.3391313404853661,
   "excited": -0.9439641703989168,
   "bathrobe": -3.9604207895010934,
   "assumed": -1.9701072804916155,
   "scam": -0.9901051973752734,
   "refused": -0.9933340277054473,
   "send": -0.043745443183001775,
   "mattered": -1.9372981981043642,
   "scratchy": -2.646807624205812,
   "rash": -0.9901051973752734,
   "stains": -0.5295281741485262,
   "respect": -4.127382564316217,
   "severely": 0.045099468805332776,
   "vacationed": 1.879387563795438,
   "july": 1.926153525674409,
   "wish": 0.09186543068430372,
   "blocks": 9.454952609103218,
   "mi": 2.7986668055410893,
   "sometimes": 1.3076762837204459,
   "seem": 2.9679200083324653,
   "miles": 2.8325174460993647,
   "celebrate": -3.852931986251432,
   "missed": -1.2322674721383189,
   "mark": -0.24268305384855743,
   "expect": -3.8711592542443496,
   "bedbugs": -3.7515883762108113,
   "underneath": -1.979168836579523,
   "mattress": -1.8819914592229976,
   "rule": -0.08165816060826997,
   "brought": -0.02551817519008437,
   "practically": -1.0547859597958547,
   "accused": -0.9895844182897615,
   "planting": -0.9895844182897615,
   "bugs": -0.8387667951255078,
   "humiliated": -0.9895844182897615,
   "situation": -5.03582960108322,
   "handled": -0.9895844182897615,
   "needless": -1.8715758775127591,
   "decision": -1.926153525674409,
   "pack": -2.7308613686074366,
   "elsewhere": 3.4517237787730446,
   "written": -0.16487865847307573,
   "letter": -0.05259868763670451,
   "chain": 1.9192792417456515,
   "hope": 1.4754713050723882,
   "responsive": -0.12956983647536716,
   "reported": -2.7959587542964273,
   "incident": -1.9284449536506614,
   "company": 2.5231746693052806,
   "alert": -0.9895844182897615,
   "refuting": -0.9895844182897615,
   "charged": 1.5468180397875222,
   "account": 1.0161441516508698,
   "cancellation": 0.6651390480158317,
   "deadline": -0.9895844182897615,
   "added": 0.20258306426413916,
   "plenty": -1.5168211644620353,
   "stores": 0.16612852827830435,
   "restaurants": 2.940214560983231,
   "annoyingly": 0.9894802624726591,
   "regardless": 2.6949276117071137,
   "subway": 3.4390167690865536,
   "wrigley": 0.9894802624726591,
   "block": 8.703780856160817,
   "third": -0.5657743985001562,
   "proved": 0.4277679408394959,
   "previous": 3.4700552025830644,
   "consistently": 0.9892719508384543,
   "applies": 0.9892719508384543,
   "whether": 0.07790855119258411,
   "servicing": 0.9892719508384543,
   "managing": 0.9892719508384543,
   "genuinely": 0.9892719508384543,
   "cant": 7.8340797833559,
   "insulation": 0.8819914592229976,
   "neighbours": 0.9892719508384543,
   "busy": -3.446203520466618,
   "placed": 4.691178002291428,
   "walking": 4.97510675971253,
   "shops": -2.9277158629309445,
   "jewel": 0.9892719508384543,
   "osco": 0.9892719508384543,
   "trader": 0.9892719508384543,
   "joes": 2.772836162899698,
   "within": 7.932611186334757,
   "stocking": 1.8492865326528487,
   "etc": 5.5661910217685655,
   "heartily": 0.9892719508384543,
   "recommends": 0.9892719508384543,
   "binnies": 0.9892719508384543,
   "beverage": 0.9892719508384543,
   "depot": 0.9892719508384543,
   "huge": -2.2351838350171858,
   "variety": 2.4579731277991876,
   "excuse": 2.9836475367149253,
   "else": -1.3390271846682638,
   "rented": -2.367565878554317,
   "experienced": -3.2460160399958338,
   "referre": -2.367565878554317,
   "others": 2.985209873971461,
   "spacey": -2.367565878554317,
   "aid": -2.367565878554317,
   "whenever": -4.950109363607957,
   "belief": -3.152692427872097,
   "nicest": 0.12977814810957192,
   "world": -0.8213727736694094,
   "says": -2.3336110821789395,
   "easily": -2.9738568899073012,
   "luxuries": -2.367565878554317,
   "live": 3.666597229455265,
   "floors": 4.6098323091344655,
   "condo": 0.9890636392042496,
   "finished": 0.5829601083220498,
   "inexpensive": 1.903968336631601,
   "least": 2.9187584626601395,
   "reasonable": 0.4901572752838246,
   "groups": 0.26882616394125614,
   "eaten": 2.2900739506301426,
   "outdated": 1.8510571815435892,
   "residential": 0.9890636392042496,
   "reasonably": 0.9890636392042496,
   "loop": 4.118216852411207,
   "ranges": 0.9890636392042496,
   "less": 0.9120924903655869,
   "tax": 3.0556192063326737,
   "sure": 2.2994479741693574,
   "rates": -2.595458806374336,
   "deal": 0.9577127382564317,
   "travel": -0.2780960316633684,
   "bargain": -0.7902301843557963,
   "getaway": 1.623060097906468,
   "navy": 2.4144359962503907,
   "pier": 0.9746901364441204,
   "penny": -1.7758566815956671,
   "remodeled": -3.264972398708468,
   "hits": -0.9876054577648161,
   "minute": 8.108113738152277,
   "walk": 6.299343818352255,
   "art": 2.2094573481928967,
   "guestroom": -0.07967920008332466,
   "artwork": -0.07967920008332466,
   "personal": -1.7175294240183314,
   "marble": 1.6902405999375065,
   "tile": 1.6394125611915427,
   "classic": -1.0220810332257058,
   "rainfall": -0.9876054577648161,
   "showerhead": -0.9876054577648161,
   "people": -6.5932715342151855,
   "sweat": -0.9876054577648161,
   "pampering": -0.9876054577648161,
   "body": -0.9787522133111134,
   "awaits": -0.9876054577648161,
   "add": 1.0990521820643684,
   "newly": 0.8587647120091657,
   "bottle": 2.987292990313509,
   "turn": 1.588688678262681,
   "strong": 1.821789396937819,
   "influence": 0.9870846786793043,
   "shortcomings": 0.9870846786793043,
   "chatting": 0.9870846786793043,
   "playing": 0.9870846786793043,
   "cell": 1.31527965836892,
   "opening": 1.913238204353713,
   "luck": 1.9479220914488073,
   "runningyou": 0.9870846786793043,
   "tiny": 5.369648994896365,
   "conditioning": -1.8963649619831267,
   "allthe": 0.9870846786793043,
   "damp": 0.007395063014269347,
   "miserable": -0.754192271638371,
   "thermostat": 1.7004478700135404,
   "amenities": 2.6039995833767318,
   "ice": 2.9617748151234244,
   "slightly": 1.7908551192584106,
   "opinion": 0.03687115925424435,
   "reasons": -1.7739818768878242,
   "details": -3.1539422976773253,
   "seems": -6.23757941881054,
   "pocess": -1.7739818768878242,
   "kind": -0.9134465159879179,
   "forgetting": -1.7739818768878242,
   "completely": -3.889698989688574,
   "astonished": -1.7739818768878242,
   "pick": -0.289344859910426,
   "compare": -0.8268930319758359,
   "designs": -1.7739818768878242,
   "real": 0.8731382147692949,
   "favorite": -2.5217164878658473,
   "sheratonsstarwood": 0.9868763670450995,
   "chi": 0.044682845536923234,
   "unloading": 0.9868763670450995,
   "nick": 0.9868763670450995,
   "gives": 2.011873763149672,
   "ny": 1.8791792521612332,
   "loves": 1.8275179668784503,
   "job": -1.63712113321529,
   "efficient": 2.779397979377148,
   "roberta": 0.9868763670450995,
   "runs": 0.1579002187272159,
   "serves": 0.9868763670450995,
   "caught": 3.3006978439745858,
   "pinch": 0.05030725966045203,
   "christy": 0.9868763670450995,
   "former": 0.9868763670450995,
   "mgr": 0.9868763670450995,
   "considered": 0.03655869180293719,
   "minor": -0.400479116758671,
   "miracle": -0.859910425997292,
   "availability": 0.9868763670450995,
   "maids": -1.3832934069367773,
   "romantic": -5.797729403187168,
   "television": 0.1630038537652328,
   "complain": -7.084157900218727,
   "answered": -3.965420268722008,
   "unable": -0.8182480991563379,
   "definite": -1.9504218310592647,
   "smell": -12.69524007915842,
   "cigarette": -5.035621289449016,
   "returning": -5.467972086241017,
   "stepped": -1.3296531611290492,
   "began": 1.910217685657744,
   "coffee": 5.239245911884178,
   "maker": -0.12175815019268826,
   "toilet": 0.9988542860118738,
   "desserts": 0.9858348088740756,
   "cheese": -0.4541193625663993,
   "spread": 2.66420164566191,
   "eno": 0.9858348088740756,
   "yummy": 2.6912821581085304,
   "staffed": 2.2891365482762214,
   "inexperienced": 0.9857306530569733,
   "executive": 0.9857306530569733,
   "lounge": -0.8622018539735444,
   "limited": 0.8465784814081867,
   "similarly": 0.9857306530569733,
   "lack": 3.9576085824393292,
   "level": 3.690657223205916,
   "type": 0.2956983647536715,
   "individuals": 2.2891365482762214,
   "simply": 0.13113217373190292,
   "representimentation": 0.9857306530569733,
   "choices": 0.005728569940631184,
   "ago": -0.4961983126757629,
   "defiantly": -0.9856264972398708,
   "apparent": -0.18185605666076451,
   "ended": -0.4926570148942818,
   "planned": 2.179043849599,
   "hate": -0.43224664097489846,
   "maintained": -3.8435579627122176,
   "inept": -0.0302051869596917,
   "physically": 0.8809499010519738,
   "ill": -4.035621289449016,
   "appearance": -0.9852098739714613,
   "dandy": -0.9852098739714613,
   "repulsive": -0.9852098739714613,
   "soon": -2.138214769294865,
   "threw": -1.9117800229142798,
   "luggage": -6.917196125403604,
   "onto": -0.07405478595979585,
   "ground": -0.017289865638995938,
   "verbally": -0.9852098739714613,
   "demanded": -0.9852098739714613,
   "tip": -0.42453911050932197,
   "noticed": -0.9333402770544735,
   "insects": -0.9852098739714613,
   "kinds": -1.8409540672846578,
   "scurrying": -0.9852098739714613,
   "pungent": -0.9852098739714613,
   "human": -0.07405478595979585,
   "excrement": -0.9852098739714613,
   "taken": -0.8064784918237684,
   "fled": -0.9852098739714613,
   "complete": -2.5164045411936256,
   "waste": -0.6698260597854391,
   "problem": 3.5755650453077803,
   "try": 7.831892511196751,
   "hopes": -3.667951255077596,
   "redeeming": 0.3466305593167378,
   "space": 5.146130611394646,
   "dirt": -0.3077804395375482,
   "mold": -0.07572127903343402,
   "arrogant": -0.2939277158629309,
   "callous": -0.9852098739714613,
   "ethic": -0.9852098739714613,
   "child": 1.627642953858973,
   "cook": -0.9852098739714613,
   "refunding": -0.9852098739714613,
   "couples": -0.7439850015623373,
   "couldnt": 0.4193313196542028,
   "magnificent": 3.411832100822831,
   "awesome": 1.51484220393709,
   "quiet": 9.255494219352151,
   "bathroomover": -1.6681595667118008,
   "dump": 1.8747005520258306,
   "westin": 3.3251744609936464,
   "despite": -0.31205082803874595,
   "ate": 1.7267992917404438,
   "regret": -1.525153629830226,
   "holiday": 4.722112279970837,
   "unimpressive": 1.9300072909071972,
   "trainbus": 0.9838558483491303,
   "stop": 2.355587959587543,
   "inexpensively": 0.9838558483491303,
   "herethis": 0.9838558483491303,
   "trap": 0.9838558483491303,
   "colorful": 0.983230913446516,
   "lying": 1.0385376523278824,
   "cloud": 0.15623372565357777,
   "fiberfill": 0.983230913446516,
   "pleased": -0.13186126445161964,
   "show": 1.1545672325799397,
   "security": 8.887615873346526,
   "decorations": -0.3390271846682637,
   "framed": 0.983230913446516,
   "boring": 2.980314550567649,
   "bedspreads": 0.15623372565357777,
   "lumpy": 1.9640662430996771,
   "opposite": -1.2821581085303615,
   "hello": -0.9831267576294136,
   "unhappy": -0.9685449432350797,
   "learned": 0.7971044682845537,
   "charges": 2.7186751380064575,
   "mention": -4.82491407145089,
   "fees": -0.10228101239454224,
   "fee": -2.7326320174981773,
   "per": -4.576398291844599,
   "plus": -2.547026351421727,
   "ridiculous": 0.053327778356421204,
   "remember": 0.8434538068951151,
   "sisters": -2.5579627122174773,
   "wedding": 0.0842620560358296,
   "helping": -4.545672325799396,
   "coordinate": -1.8658473075721278,
   "organized": -1.8658473075721278,
   "situated": -0.4312050828038746,
   "gift": -1.312884074575565,
   "held": -5.926257681491511,
   "rehearsal": -0.9293823560045829,
   "dinnergroomsman": -1.8658473075721278,
   "party": -7.1751900843662115,
   "celebrity": -3.7170086449328195,
   "married": -4.4077700239558375,
   "church": -1.8658473075721278,
   "banquet": -1.8658473075721278,
   "shuttling": -1.8658473075721278,
   "arrange": -1.874804707842933,
   "dj": -1.8658473075721278,
   "weddings": -2.4036037912717427,
   "contain": 0.9827101343610041,
   "amenties": 0.9827101343610041,
   "fallen": 1.8816789917716905,
   "love": 0.9380272888240808,
   "cities": 0.9827101343610041,
   "selfcheck": 0.9827101343610041,
   "smoothly": 0.1592542443495469,
   "changed": -1.3200708259556295,
   "terms": 2.592750755129674,
   "travelers": 0.9751067597125299,
   "comfort": 0.20727007603374648,
   "exceptional": 2.089782314342256,
   "connection": -1.8935527549213624,
   "china": -3.0906155608790753,
   "grill": -3.0906155608790753,
   "junior": 0.9822935110925946,
   "catch": 0.942401833142381,
   "movies": 0.0962399750026039,
   "atrium": 0.9822935110925946,
   "top": 3.5258827205499426,
   "notch": 1.613061139464639,
   "lower": 0.07186751380064577,
   "waits": -0.3911050932194563,
   "shed": 1.0015623372565359,
   "aquarium": -1.797208624101656,
   "field": 1.0033329861472764,
   "musium": 0.9822935110925946,
   "remains": 0.9822935110925946,
   "tied": 0.9822935110925946,
   "london": 0.9822935110925946,
   "favourite": 0.9822935110925946,
   "utilized": -0.09019893761066555,
   "play": -1.8232475783772524,
   "package": -12.220810332257056,
   "complimentary": -1.8125195292157068,
   "kit": -2.78908447036767,
   "plan": -0.2894490157275284,
   "craig": -0.9820851994583898,
   "shows": -1.7450265597333612,
   "cares": -0.9820851994583898,
   "everthing": 1.7639829184459952,
   "spotless": -1.4660972815331736,
   "god": 0.580043745443183,
   "relatively": -5.449953129882304,
   "flexible": -0.9815644203728778,
   "seeing": -3.5206749296948234,
   "bucks": 0.7372148734506823,
   "vendor": 0.10446828455369232,
   "booking": 4.477866888865743,
   "contacted": 1.395896260806166,
   "request": 3.8616810748880326,
   "conversations": 1.0825955629621915,
   "personnel": 1.893761066555567,
   "sized": -3.5836891990417663,
   "apparently": -1.8428288719925008,
   "unaccomodating": 0.9814602645557754,
   "insult": 2.745026559733361,
   "injury": 0.0007290907197166961,
   "obtained": 0.9814602645557754,
   "acceptable": 1.9562545568169982,
   "bottom": 1.9311530048953234,
   "respectful": -0.9813561087386731,
   "behind": -2.6380585355692117,
   "escorted": -1.6895115092177897,
   "done": -1.8493906884699511,
   "unlike": -0.9813561087386731,
   "towers": -3.750963441308197,
   "farthest": -0.9811477971044683,
   "truth": -0.9111550880116654,
   "unhelpful": -2.6916987813769397,
   "start": -3.7641912300802,
   "entered": -3.102489324028747,
   "foul": -0.9811477971044683,
   "overlooked": 0.8347047182585148,
   "amazement": -0.9811477971044683,
   "appeared": 0.7791896677429434,
   "dog": -0.9811477971044683,
   "knock": -3.3243412144568274,
   "happened": -1.4068326216019165,
   "police": -1.910738464743256,
   "report": -0.06186855535881679,
   "marijuana": -2.943443391313405,
   "series": -0.9811477971044683,
   "embarrasing": -0.9811477971044683,
   "questions": -0.9514633892302885,
   "belongings": 0.6822206020206228,
   "searched": -1.7348192896573273,
   "drawer": -0.9811477971044683,
   "dresser": -1.6689928132486198,
   "touched": -0.08926153525674409,
   "surveillance": -2.8149151130090617,
   "cleaning": -6.209873971461306,
   "lady": -1.8413706905530673,
   "arrested": -0.9811477971044683,
   "possession": -0.9811477971044683,
   "purchased": 1.0219768774086033,
   "groupon": 0.9810436412873659,
   "hidden": 0.9810436412873659,
   "treasures": 0.9810436412873659,
   "layed": 0.9810436412873659,
   "lifted": 0.9810436412873659,
   "blanket": 1.0209353192375794,
   "distubing": 0.9810436412873659,
   "spotting": 0.9810436412873659,
   "attached": 4.1091552963233,
   "immediatly": 0.9810436412873659,
   "sheets": -2.073534006874284,
   "men": 3.793979793771482,
   "change": 0.3145505676492032,
   "red": 2.8235600458285597,
   "quicklyhid": 0.9810436412873659,
   "ones": 0.9231330069784397,
   "denied": 1.9549005311946672,
   "slept": 3.3064264139152173,
   "eagerly": 0.9810436412873659,
   "showed": 0.8933444432871576,
   "fronk": 0.9810436412873659,
   "manager": 5.304239141756067,
   "dissapointed": 0.9810436412873659,
   "sleepless": 1.9003228830330174,
   "broke": 0.9810436412873659,
   "face": 2.0450994688053328,
   "acne": 1.9620872825747318,
   "skin": 0.09113633996458702,
   "positive": -0.5902510155192168,
   "dirtyy": 0.9810436412873659,
   "drove": 2.35850432246641,
   "reputatuion": 0.9810436412873659,
   "unfortunitly": 0.9810436412873659,
   "disspointed": 0.9810436412873659,
   "disgusting": 1.4354754713050724,
   "wrote": 0.9810436412873659,
   "heard": 4.0143735027601295,
   "response": 3.5066138943860015,
   "apology": 1.6966982605978544,
   "alot": 0.9987501301947713,
   "flight": -1.3636079575044266,
   "california": 0.08728257473179878,
   "renovation": 1.5483803770440578,
   "named": 3.446515987917925,
   "ben": 0.9808353296531611,
   "literally": 2.268826163941256,
   "handed": 0.9808353296531611,
   "deskshe": 0.9808353296531611,
   "wearing": 1.7724195396312883,
   "name": 10.281012394542236,
   "tag": 1.4454744297469013,
   "african": 0.9808353296531611,
   "american": -2.9503176752421623,
   "slim": 0.9808353296531611,
   "radiating": 0.9808353296531611,
   "hostility": 0.9808353296531611,
   "unwelcome": 0.24612019581293615,
   "putting": 3.31746693052807,
   "downstairs": 5.074054785959796,
   "question": 1.5617123216331632,
   "smile": 1.4936985730653056,
   "utter": 0.12373711071763357,
   "disdain": 0.08165816060826997,
   "rudeness": 1.0351005103635038,
   "watched": 0.9808353296531611,
   "interact": 0.006561816477450266,
   "manners": 1.9549005311946672,
   "happening": 0.004166232684095407,
   "appalled": 0.42880949901051973,
   "demeanor": 0.04811998750130195,
   "alright": 0.7329444849494844,
   "clock": 0.10623893344443287,
   "odd": 0.12509113633996458,
   "zone": 0.9808353296531611,
   "computer": -2.362045620247891,
   "constantly": 0.018018956358712635,
   "confused": 1.8919904176648266,
   "correct": 1.8387667951255078,
   "waking": 0.9808353296531611,
   "literature": 2.650036454535986,
   "sites": 2.415998333506926,
   "maps": 0.0008332465368190813,
   "menus": -0.8849078221018644,
   "address": 2.7307572127903343,
   "absolute": -0.5633788147068014,
   "sore": 0.9808353296531611,
   "neck": 0.9808353296531611,
   "futon": 0.9808353296531611,
   "absurd": 0.9808353296531611,
   "drain": 0.9808353296531611,
   "shocked": 1.5472346630559317,
   "soda": 2.221435267159671,
   "maybe": 1.3487136756587854,
   "somewhere": 2.41266534735965,
   "aware": 3.8650140610353088,
   "fear": 0.05426518071034267,
   "burden": 0.9808353296531611,
   "glance": 1.8819914592229976,
   "absolutely": -3.001874804707843,
   "cheap": -1.6951359233413186,
   "bummer": 0.9808353296531611,
   "turned": -9.01666493073638,
   "stressful": -0.18164774502655973,
   "representimentative": -0.5662951775856682,
   "options": -3.3379856264972396,
   "accepted": -2.59650036454536,
   "queen": -5.20654098531403,
   "truly": 1.6087907509634414,
   "accept": -1.7344026663889178,
   "infused": -0.9807311738360588,
   "nauseous": -0.9807311738360588,
   "stale": -2.156025414019373,
   "followed": -0.9807311738360588,
   "sympathetic": -0.9807311738360588,
   "related": -0.9807311738360588,
   "perk": -0.1467555462972607,
   "members": 0.31350900947817933,
   "acted": -0.9807311738360588,
   "eager": -0.06145193209040725,
   "dined": -0.9807311738360588,
   "expense": -0.07280491615456723,
   "pardon": -0.9807311738360588,
   "pun": -0.9807311738360588,
   "sit": 1.5168211644620353,
   "dine": -0.9807311738360588,
   "taste": -3.01093636079575,
   "mouth": -2.7546088949067804,
   "office": -1.472971565461931,
   "responds": -0.9807311738360588,
   "thus": -0.9807311738360588,
   "received": 2.106238933444433,
   "satisfaction": -0.9807311738360588,
   "patronize": -0.9807311738360588,
   "brand": 1.6539943755858766,
   "delight": -0.07207582543485054,
   "higher": -0.8973023643370482,
   "york": -0.8631392563274659,
   "naturally": -0.9800020831163421,
   "nicer": -0.8659514633892302,
   "establishment": -3.75283824601604,
   "focuses": -0.9800020831163421,
   "gimmicks": -0.9800020831163421,
   "apart": -0.1180085407770024,
   "competition": -0.9800020831163421,
   "uunfortunately": -0.9800020831163421,
   "strictly": -0.9800020831163421,
   "negative": 1.5145297364857826,
   "dream": -2.787001354025622,
   "menu": -1.4784918237683575,
   "flop": -0.9800020831163421,
   "patrons": -0.9800020831163421,
   "downstuffed": -0.9800020831163421,
   "happily": -0.13602749713571502,
   "fluffy": -1.5608790750963442,
   "laid": 1.2421622747630456,
   "giant": 0.8040829080304135,
   "poof": -0.9800020831163421,
   "dust": -2.5652536194146442,
   "imagination": -0.9800020831163421,
   "stood": -2.8776169149046975,
   "hit": -1.877200291636288,
   "edge": -0.9800020831163421,
   "particles": -0.9800020831163421,
   "flying": -1.7922091448807416,
   "sneezing": -0.9800020831163421,
   "grit": -0.9800020831163421,
   "sunglasses": -0.9800020831163421,
   "sitting": -1.0017706488907405,
   "stand": 2.265805645245287,
   "replacements": -0.9800020831163421,
   "music": -1.083532965316113,
   "pluged": -0.9800020831163421,
   "mp": -1.8211644620352048,
   "player": -0.8904280804082908,
   "cords": -0.9800020831163421,
   "accommodating": 0.20299968753254868,
   "filthy": -0.12436204562024789,
   "gimmick": -0.9800020831163421,
   "kits": -0.9800020831163421,
   "collection": -0.9800020831163421,
   "guide": 0.08478283512134152,
   "marked": 1.590042703885012,
   "handy": -2.212790334340173,
   "cards": -1.0366628476200397,
   "missing": 5.92709092802833,
   "lacked": -1.0053119466722216,
   "certain": -1.1232163316321218,
   "labor": -1.928861576919071,
   "mistake": -3.599000104155817,
   "steady": -1.9593792313300697,
   "drip": -3.766899281324862,
   "knob": -0.9796896156650349,
   "soap": 0.4990105197375273,
   "stocked": 1.4423497552338298,
   "paper": 1.3797521091552962,
   "swept": -0.9796896156650349,
   "wad": -0.9796896156650349,
   "scraps": -0.9796896156650349,
   "tissue": -0.9796896156650349,
   "bowl": -0.07082595562962192,
   "stock": -0.9796896156650349,
   "ac": -1.6735756692011248,
   "started": -4.3820435371315485,
   "blowing": -0.9796896156650349,
   "musky": -0.9796896156650349,
   "smelling": -1.8086657639829185,
   "switch": -1.7695031767524216,
   "frustrated": 1.7895010936360796,
   "odor": -1.3624622435163003,
   "hearing": 0.8190813456931569,
   "moved": -2.690657223205916,
   "strongly": 0.7747109676075409,
   "later": 0.9349026143110093,
   "settle": -1.9407353400687428,
   "reason": -0.3919383397562754,
   "makeover": 0.6114988022081034,
   "gaping": 0.9793771482137278,
   "hole": 0.9916675346318092,
   "bedroom": 6.787209665659827,
   "kid": -0.07842933027809604,
   "looks": 0.9462555983751693,
   "mauled": 0.9793771482137278,
   "earthworm": 0.9793771482137278,
   "chipped": 2.851057181543589,
   "slumming": 0.9793771482137278,
   "justoutofcollegesisters": 0.9793771482137278,
   "apartment": 0.2204978648057494,
   "furnished": -1.2954900531194666,
   "retrieved": 0.33204874492240394,
   "dumpster": 0.9793771482137278,
   "drive": 1.967815852515363,
   "receptionist": 5.502447661701906,
   "curt": 1.9534423497552338,
   "horribly": 1.8202270596812833,
   "onsite": 0.9790646807624206,
   "getgo": 0.9790646807624206,
   "arrangements": 0.9790646807624206,
   "beforehand": 0.06218102281012394,
   "file": 1.911050932194563,
   "clerks": -0.05988959483387147,
   "messed": 1.006249349026143,
   "provide": -2.1156129569836475,
   "assume": 0.06218102281012394,
   "catered": 0.9790646807624206,
   "checkout": 4.247682533069472,
   "attempting": 0.9790646807624206,
   "locked": 3.265284866159775,
   "attend": 1.1635246328507447,
   "theater": 3.4931777939797937,
   "dancing": 2.5369232371627954,
   "orbitz": 2.5369232371627954,
   "courtesy": 1.7035725445266119,
   "upgraded": 6.63493386105614,
   "decorated": -0.4940110405166128,
   "particularily": 2.5369232371627954,
   "heat": 3.7986668055410893,
   "directed": 3.4630767628372046,
   "frequently": 0.6269138631392563,
   "acknowledge": 0.7071138423080929,
   "words": -0.7281533173627748,
   "fireplaces": 0.9786480574940111,
   "closed": 5.913758983439225,
   "cap": 2.82314342256015,
   "wanting": 0.24174565149463598,
   "listening": 0.9786480574940111,
   "complaining": -1.5521299864597438,
   "sympathy": 0.9786480574940111,
   "places": -3.3465264034996354,
   "ruin": 0.9786480574940111,
   "experince": -0.9783355900427039,
   "software": -1.8564732840329132,
   "marketing": -0.9303197583585043,
   "firm": -1.8941776898239766,
   "requires": -0.4801583168419956,
   "normally": 0.4288094990105198,
   "write": -2.5209873971461305,
   "matters": -0.9453181960212478,
   "makes": -1.3800645766066035,
   "similar": -2.7078429330278095,
   "chances": -1.8564732840329132,
   "fitzpatrick": 1.6692011248828247,
   "june": 1.1837308613686075,
   "birthdaygreat": 0.9779189667742944,
   "marshall": 0.9779189667742944,
   "john": 5.6718050203103845,
   "hancock": 3.7215915008853244,
   "sq": 0.9779189667742944,
   "ft": 1.8698052286220186,
   "lots": 7.8820956150401,
   "upscale": -1.4598479325070306,
   "greet": -1.8511613373606917,
   "club": 1.5777523174669306,
   "climate": -1.8554317258618893,
   "using": -0.9044891157171128,
   "alarm": -1.3452765336944068,
   "radio": -0.9111550880116654,
   "likely": -1.960524945318196,
   "stranded": 1.8552234142276847,
   "canceled": -0.9109467763774607,
   "airline": 1.8552234142276847,
   "touch": 3.2775752525778565,
   "frustrating": 2.616498281429018,
   "arriving": 1.416414956775336,
   "joy": 1.8552234142276847,
   "bell": 6.1921674825539,
   "heavy": 0.9508384543276742,
   "jonathan": 1.8552234142276847,
   "facilities": 1.8389751067597127,
   "unexpected": -0.011665451515467138,
   "downhill": -0.9767732527861681,
   "desired": -0.9767732527861681,
   "biggest": 4.252161233204875,
   "turd": -0.9767732527861681,
   "guess": -3.1164462035204665,
   "maid": -3.508072075825435,
   "break": 0.8830330173940215,
   "prices": -8.958025205707738,
   "convention": -2.7661701906051452,
   "college": -4.114363087178419,
   "age": -0.06145193209040725,
   "kids": -3.555671284241225,
   "worked": -4.634725549421935,
   "risking": -0.9767732527861681,
   "mentioned": 2.9086553484012083,
   "reconsider": -0.9767732527861681,
   "touts": -0.9766690969690657,
   "talbot": 0.7322153942297678,
   "threadbare": -0.9766690969690657,
   "thin": 4.1266534735965,
   "worried": -2.8911571711280075,
   "privacy": -0.10728049161545672,
   "unheard": -0.9766690969690657,
   "remodeling": -0.9766690969690657,
   "exquisite": -0.9766690969690657,
   "uptodate": -0.9766690969690657,
   "furnishings": -1.1154046453494426,
   "impressions": -2.4852619518800125,
   "travelwarning": 0.9761483178835538,
   "folks": 2.7578377252369544,
   "sign": -4.606603478804291,
   "travelzoo": 0.9761483178835538,
   "consists": 0.9761483178835538,
   "cup": 3.788147068013749,
   "bisquit": 0.9761483178835538,
   "moreover": 0.9761483178835538,
   "tickets": 3.8874075617123216,
   "give": 2.847515883762108,
   "automatically": 1.7743985001562337,
   "christmas": 0.9761483178835538,
   "consider": 4.506509738568899,
   "lousy": 0.08374127695031768,
   "amazed": -1.4363087178418916,
   "florist": -0.9759400062493491,
   "rose": -0.9759400062493491,
   "barand": -0.9759400062493491,
   "history": 2.786584730757213,
   "nostalgia": 1.8514738048119987,
   "wanted": -4.105926465993126,
   "sofa": 3.806374336006666,
   "living": -0.239037600249974,
   "amy": -1.8498073117383607,
   "c": -1.8498073117383607,
   "los": -2.774710967607541,
   "angelas": -1.8498073117383607,
   "meridian": 1.8520987397146131,
   "inherited": 0.9747942922612228,
   "difficult": 0.7779397979377148,
   "result": 0.02760129153213207,
   "affects": 0.9747942922612228,
   "registration": 1.7785647328403291,
   "layout": 0.9747942922612228,
   "annoying": 2.6793042391417563,
   "compared": 3.8798041870638476,
   "stark": 0.9747942922612228,
   "showing": 0.9946880533277783,
   "wear": 0.9747942922612228,
   "tear": 0.9747942922612228,
   "chair": 1.1098843870430164,
   "setup": -0.5974377668992813,
   "nonexistent": 0.9193833975627539,
   "vistas": 0.9747942922612228,
   "halls": -0.7358608478283513,
   "highlight": 0.08488699093844392,
   "presentimentation": 1.8836579522966357,
   "sorry": -2.816477450265597,
   "incredible": 3.912613269451099,
   "overcharged": -0.4435996250390584,
   "eitherthe": -0.9746901364441204,
   "crazy": -0.02031038433496511,
   "burns": -0.9746901364441204,
   "punched": -0.9746901364441204,
   "marginally": -0.9746901364441204,
   "cleanliness": -6.446932611186335,
   "yelling": -2.5501510259347984,
   "hallway": 3.8235600458285597,
   "firstly": -1.6219143839183419,
   "hassle": -2.8445995208832415,
   "secondly": -1.9311530048953234,
   "sorted": -0.9745859806270181,
   "degrees": -1.7724195396312883,
   "romance": -3.3749609415685864,
   "standards": 1.2287261743568378,
   "heading": 0.9167795021351942,
   "simple": 2.0377044057910636,
   "upholstered": -0.9742735131757109,
   "headboard": -0.9742735131757109,
   "counter": -7.001770648890741,
   "judge": -0.9742735131757109,
   "behavior": 0.9740652015415061,
   "attitude": -2.232788251223831,
   "abysmal": 0.9740652015415061,
   "midday": 0.9740652015415061,
   "unannounced": 0.9740652015415061,
   "apologize": 1.5260910321841474,
   "realizing": -0.34746380585355696,
   "verify": 1.7930423914175606,
   "presentiment": 0.9740652015415061,
   "tremendous": 0.20341631080095823,
   "young": 2.5172377877304446,
   "replied": 0.9740652015415061,
   "tone": 1.4198520987397147,
   "flippant": 0.9740652015415061,
   "teenager": 0.9740652015415061,
   "suspect": 0.9740652015415061,
   "severe": 0.2819497968961566,
   "deficiency": 0.9740652015415061,
   "evident": 1.5416102489324028,
   "following": 1.808040829080304,
   "premises": 0.8788667847099261,
   "discover": 0.6886782626809707,
   "intentions": 0.9740652015415061,
   "bass": 0.08415790021872721,
   "audible": 0.9740652015415061,
   "acting": 0.9740652015415061,
   "prudently": 0.9740652015415061,
   "restraint": 0.9740652015415061,
   "inquire": 0.9740652015415061,
   "inadvertently": 0.9740652015415061,
   "annexed": 0.9740652015415061,
   "sean": 0.9740652015415061,
   "informed": -4.022393500677013,
   "greater": 0.9740652015415061,
   "priority": 0.9740652015415061,
   "dictated": 0.9740652015415061,
   "volume": 0.9740652015415061,
   "hand": 0.6983647536714925,
   "honesty": 0.9740652015415061,
   "pretended": 0.9740652015415061,
   "watch": -1.8230392667430475,
   "circumstances": 0.9740652015415061,
   "situations": 0.9740652015415061,
   "arose": 0.9740652015415061,
   "succession": 0.9740652015415061,
   "alarmed": 0.9740652015415061,
   "learn": 2.8840745755650454,
   "prior": 3.758254348505364,
   "gangrelated": 0.9740652015415061,
   "shooting": 0.9740652015415061,
   "mere": 0.9740652015415061,
   "concern": 0.9740652015415061,
   "enlist": 0.9740652015415061,
   "measures": 0.9740652015415061,
   "dare": 0.9740652015415061,
   "footing": 1.7153421518591814,
   "road": 1.2270596812831998,
   "motels": -0.7672117487761692,
   "training": 5.199770857202375,
   "regimen": 0.9740652015415061,
   "serious": 0.9740652015415061,
   "revamping": 0.9740652015415061,
   "serve": 2.1345693156962815,
   "interests": 0.9740652015415061,
   "importantly": 1.7797104468284553,
   "common": -0.42360170815540044,
   "sense": 0.0020831163420477034,
   "goes": -1.0241641495677534,
   "treat": -7.410998854286012,
   "tastefully": -0.9966670138527237,
   "aircondition": 0.9738568899073013,
   "noisy": 6.12269555254661,
   "fancompressor": 0.9738568899073013,
   "starts": 0.9738568899073013,
   "min": 2.808874075617123,
   "wake": 1.7504426622226852,
   "fashion": 0.9738568899073013,
   "replaced": 1.3587126341006146,
   "postal": 0.9738568899073013,
   "nonworking": 0.9738568899073013,
   "concert": 0.14935944172482032,
   "correctly": 2.8765753567336736,
   "addressed": 0.013123632954900532,
   "transported": 0.9738568899073013,
   "ups": 0.9738568899073013,
   "managers": 4.365274450578065,
   "travelling": 1.5476512863243412,
   "ticket": 0.9738568899073013,
   "agent": 1.7776273304864076,
   "resolve": 1.5414019372981982,
   "roomnights": 0.9738568899073013,
   "rd": 3.4433913134048537,
   "children": -3.6209769815644206,
   "childrens": -0.9729194875533799,
   "informal": -0.9729194875533799,
   "fancy": -4.68472034163108,
   "fall": -0.8162691386313925,
   "markup": -0.9719820851994584,
   "colors": -1.9108426205603584,
   "section": -4.467034683887095,
   "targetthey": -0.9719820851994584,
   "ish": -0.9719820851994584,
   "facet": 0.9712529944797417,
   "nicely": -0.8753254869284449,
   "anytime": 0.45141131132173734,
   "virtually": 1.8629309446932611,
   "touches": 3.833142381001979,
   "value": 4.2510155192167485,
   "criticize": 0.9710446828455369,
   "affnia": -1.7416935735860848,
   "unsatisfied": -1.7416935735860848,
   "untidy": -1.7416935735860848,
   "granted": -2.38298093948547,
   "roomit": -1.7416935735860848,
   "patches": -1.7416935735860848,
   "horrendously": -1.7416935735860848,
   "buck": -0.962399750026039,
   "finejust": -1.7416935735860848,
   "intended": -1.80043745443183,
   "knicked": -0.9707322153942297,
   "mercedez": -0.9707322153942297,
   "clerkconcierge": -0.9707322153942297,
   "standing": 0.9213623580876993,
   "lugged": -0.9707322153942297,
   "dismay": -0.9707322153942297,
   "haggling": -0.9707322153942297,
   "whatnot": -0.9707322153942297,
   "unbearable": -0.9707322153942297,
   "cigarrettes": -0.9707322153942297,
   "supposedly": -0.403187168003333,
   "jet": -0.9707322153942297,
   "lagged": -0.9707322153942297,
   "voices": -1.8154358920945735,
   "thoughout": -0.9707322153942297,
   "ambien": -0.9707322153942297,
   "backaches": -0.9707322153942297,
   "continental": -0.9297989792729924,
   "placealso": 0.970523903760025,
   "spectaculara": 0.970523903760025,
   "valets": 0.970523903760025,
   "agents": 0.970523903760025,
   "waitstaff": 0.970523903760025,
   "shabby": 0.970523903760025,
   "eitherwell": 0.970523903760025,
   "daughter": -1.05895219247995,
   "attended": 4.321633163212166,
   "threeday": 1.8406415998333507,
   "illinois": 0.397771065514009,
   "ad": 1.8406415998333507,
   "visitors": 1.7545047390896782,
   "glad": 0.9143839183418394,
   "wanteda": 1.8406415998333507,
   "badsaved": 1.8406415998333507,
   "downside": 2.6462868451203,
   "cab": 1.1360274971357152,
   "ignored": -0.37214873450682223,
   "pubic": -0.9688574106863869,
   "hairs": -1.9327153421518593,
   "picked": -0.044682845536923234,
   "yuck": -0.9688574106863869,
   "transfer": -0.9688574106863869,
   "gross": -2.019685449432351,
   "roach": -0.9688574106863869,
   "advise": -3.2939277158629308,
   "band": -0.06291011352984066,
   "prompt": 1.2571607124257889,
   "fountin": 0.9686490990521821,
   "meticulously": -0.9684407874179773,
   "orderly": -0.9684407874179773,
   "comforting": -1.9317779397979378,
   "soft": -6.776585772315384,
   "heaven": -0.9684407874179773,
   "test": -2.3671492552859075,
   "perfectthe": -0.9684407874179773,
   "magical": -0.9684407874179773,
   "resturants": -0.9684407874179773,
   "shulas": -6.407353400687429,
   "steak": -3.234454744297469,
   "havent": -0.25643162170607225,
   "accomodating": -1.4950525986876366,
   "pros": 3.7478387667951254,
   "cons": 2.8819914592229976,
   "items": 2.357254452661181,
   "rug": 0.20591605041141547,
   "dangerous": 0.9679200083324654,
   "slipperyi": 0.9679200083324654,
   "wellappointed": 0.9676075408811582,
   "linens": 0.8408499114675555,
   "firstclass": 0.9676075408811582,
   "terrific": 1.0640558275179668,
   "visits": 0.9676075408811582,
   "neighborhood": 8.017081554004791,
   "comment": 1.9086553484012083,
   "watching": 2.7095094261014476,
   "eating": -0.0026038954275596294,
   "scheduled": 0.9665659827101344,
   "january": 1.9331319654202688,
   "six": 0.9186543068430372,
   "date": 0.5539006353504843,
   "seven": 2.8792834079783356,
   "advance": 2.3206957608582437,
   "rep": 0.9665659827101344,
   "practice": 2.8996979481304033,
   "smug": 0.9665659827101344,
   "manner": 0.02437246120195813,
   "honestly": 2.7440891573794395,
   "policy": 6.822310176023331,
   "unprofessional": 0.9665659827101344,
   "capture": 0.9665659827101344,
   "industry": 0.3243412144568274,
   "require": 0.9665659827101344,
   "directly": 5.184564107905427,
   "associaties": 0.9665659827101344,
   "unfair": 0.9665659827101344,
   "seriously": 0.7374231850848869,
   "priced": 0.7645036975315072,
   "lesser": 0.9663576710759296,
   "basics": 0.9663576710759296,
   "gladly": 0.9663576710759296,
   "forgone": 0.9663576710759296,
   "scale": 0.9663576710759296,
   "dressed": 0.2316425372357046,
   "purchase": 0.00947817935631705,
   "lit": 0.1349859389646912,
   "inconvenient": 1.8572023747526298,
   "oversized": 0.32329965628580354,
   "effect": 0.9663576710759296,
   "topnotch": -0.07405478595979585,
   "feels": -0.9657327361733152,
   "thoroughly": -1.717946047286741,
   "planning": -1.789292782001875,
   "ireland": 2.5969169878137692,
   "mislaid": 1.7310696802416414,
   "accommodation": 1.7310696802416414,
   "earlier": 1.8482449744818248,
   "mistakeunprompted": 1.7310696802416414,
   "nd": 5.169669826059786,
   "drunks": -0.8134569315696282,
   "crowds": -1.9590667638787627,
   "stumbling": -1.4304759920841579,
   "threatened": -0.7389855223414228,
   "speed": -3.39912509113634,
   "flawlessly": -0.9644828663680867,
   "allowed": -2.547547130507239,
   "luxuriously": -0.9644828663680867,
   "exercise": -1.7783564212061242,
   "meetings": -0.8380377044057911,
   "green": -4.295281741485262,
   "consulting": -0.9644828663680867,
   "environmental": -0.9644828663680867,
   "credentials": -0.9644828663680867,
   "dovetailed": -0.9644828663680867,
   "mission": 0.8190813456931569,
   "guilt": -0.9644828663680867,
   "restaurantlounge": -0.9640662430996771,
   "unwind": -2.747422143526716,
   "disorganized": -0.9638579314654724,
   "thrust": -0.9638579314654724,
   "keycard": 0.7053431934173524,
   "rid": -0.9638579314654724,
   "blonde": -0.9638579314654724,
   "swear": -0.038433496510780124,
   "vague": -0.9638579314654724,
   "pet": -1.7031559212582024,
   "notable": -0.9638579314654724,
   "continuous": -0.9638579314654724,
   "carpets": -2.3297573169461514,
   "noticable": -0.9638579314654724,
   "gymworkout": -0.9638579314654724,
   "repair": -0.03187168003332986,
   "slippery": -0.9638579314654724,
   "hazard": -0.9638579314654724,
   "indoor": -5.105301531090511,
   "dipped": -0.9638579314654724,
   "slimy": -0.9638579314654724,
   "unfriendly": -1.5415060931153004,
   "substandard": -0.9638579314654724,
   "paired": -0.9638579314654724,
   "sky": -0.9638579314654724,
   "earn": -0.9638579314654724,
   "repeat": -0.01770648890740548,
   "mini": 4.092698677221123,
   "palace": 0.9635454640141652,
   "les": 0.9635454640141652,
   "directions": 1.1581085303614207,
   "seedo": 0.9635454640141652,
   "rudely": -0.5810853036142068,
   "butted": 0.9635454640141652,
   "registering": 0.9635454640141652,
   "registry": 0.9635454640141652,
   "jacuzzi": 0.13654827622122695,
   "comfortably": 0.9635454640141652,
   "promised": -0.11196750338506406,
   "reluctantly": 0.07738777210707218,
   "agreed": 1.6978439745859806,
   "promise": 1.6870117696073326,
   "roll": 5.539422976773253,
   "uncomfortably": 0.9634413081970628,
   "daily": -1.5185918133527758,
   "managment": 1.9268826163941255,
   "handle": 1.882928861576919,
   "visibly": 0.9634413081970628,
   "stressed": 0.9634413081970628,
   "swim": 3.0813456931569627,
   "accomodated": 0.9634413081970628,
   "thinking": 0.8670971773773566,
   "otherwise": 2.2750755129673994,
   "emailed": 0.9634413081970628,
   "cleanly": -0.9633371523799604,
   "superbly": -0.9633371523799604,
   "busiest": 0.961878970940527,
   "weekends": 0.961878970940527,
   "summer": -1.7024268305384855,
   "memorial": 3.40349963545464,
   "affordable": -2.770440579106343,
   "exceed": 0.025309863555879594,
   "enthusiasm": 0.961878970940527,
   "recent": -5.978335590042704,
   "clerk": -6.009686490990521,
   "shrugged": -0.0962399750026039,
   "shoulders": -0.961045724403708,
   "refrigerator": 1.3534006874283928,
   "figure": 0.6555567128424122,
   "attendees": 0.785022393500677,
   "assured": -3.7010728049161545,
   "racket": -0.961045724403708,
   "dissipated": -0.961045724403708,
   "consolation": -0.961045724403708,
   "vowed": -0.961045724403708,
   "chigaco": -0.961045724403708,
   "wc": 0.9608374127695032,
   "highway": 1.9216748255390064,
   "calling": 1.8169982293511093,
   "cellphone": 0.14863035100510363,
   "lostwe": 0.9608374127695032,
   "forwarded": 0.9608374127695032,
   "giving": 1.892407040933236,
   "exit": -0.3606915946255599,
   "store": 2.783876679512551,
   "checkingin": 0.9608374127695032,
   "bigger": 1.5834808874075617,
   "walkin": 2.7139881262368504,
   "risk": 1.8973023643370481,
   "launching": -0.9607332569524007,
   "pad": -0.9607332569524007,
   "shedd": -1.8187688782418499,
   "pass": 0.6894073534006875,
   "sightseeing": 1.3585043224664097,
   "martini": 2.3047599208415788,
   "sanctuary": -0.9607332569524007,
   "memorable": -0.9607332569524007,
   "affina": 7.284241224872409,
   "pantry": 1.8210603062181023,
   "ammenities": 2.656806582647641,
   "possibly": -2.2270596812831998,
   "exceeded": 1.8210603062181023,
   "bridge": -1.8208519945838975,
   "resturant": 0.9602124778668889,
   "eminities": 0.9602124778668889,
   "uncaring": 0.9602124778668889,
   "mod": 0.9602124778668889,
   "stars": 0.8747005520258306,
   "crisp": 2.619310488490782,
   "hey": 1.71877929382356,
   "total": 2.5225497344026664,
   "nightly": 2.6267055515050517,
   "bottled": 1.71877929382356,
   "travels": 2.1332152900739505,
   "daughters": 3.7289865638995936,
   "birthday": -1.791480054161025,
   "doll": -1.9181335277575253,
   "eight": -0.9590667638787627,
   "counted": -0.9590667638787627,
   "lifetime": -0.9590667638787627,
   "across": 1.211227997083637,
   "carriage": -0.9590667638787627,
   "ride": -1.7737735652536195,
   "sulked": -0.9590667638787627,
   "cried": -0.9590667638787627,
   "speaking": 0.6719091761274867,
   "uploaded": 0.9584418289761483,
   "nobody": -1.992709092802833,
   "opportunity": 1.777419018852203,
   "hrs": 1.8970940527028435,
   "addition": -0.5241120716592022,
   "counters": 0.9584418289761483,
   "ruining": 0.9584418289761483,
   "february": 3.2761170711384233,
   "towards": 0.1440474950525987,
   "drake": 1.8692844495365066,
   "intercontinental": 0.9569836475367149,
   "charlie": 0.1447765857723154,
   "duty": 0.9569836475367149,
   "pull": 2.63014269346943,
   "hell": 1.0397875221331112,
   "wants": 2.839391730028122,
   "somehow": -2.2494531819602126,
   "sudden": 0.9569836475367149,
   "bellman": 3.3243412144568274,
   "waiter": -2.48078325174461,
   "unfortunatley": -0.9568794917196125,
   "qualities": -1.786584730757213,
   "detroit": -0.9568794917196125,
   "gone": 1.7706488907405478,
   "museum": 0.020727007603374648,
   "hardly": -0.4040204145401521,
   "packages": -0.9568794917196125,
   "understaffed": 0.1046765961878971,
   "excessively": 0.9567753359025102,
   "queue": 0.9567753359025102,
   "unreasonable": 0.9567753359025102,
   "gouging": 0.9567753359025102,
   "realize": 0.957816894073534,
   "hefty": 0.1046765961878971,
   "option": 3.2720549942714303,
   "central": -2.465159879179252,
   "official": -0.9565670242683054,
   "miniscule": -0.9565670242683054,
   "comparison": 0.028538693886053568,
   "thirdly": -0.9565670242683054,
   "bizarre": -0.9565670242683054,
   "staffs": -1.111967503385064,
   "witnessed": -0.04541193625663993,
   "outrageous": -0.9650036454535986,
   "snobbery": -0.9565670242683054,
   "pulled": 2.6985730653056974,
   "chosen": 1.8670971773773566,
   "advisor": 2.80481199875013,
   "noncorporate": 0.9562545568169982,
   "typically": 0.05624414123528799,
   "chains": 0.9521924799500052,
   "decorative": 0.9562545568169982,
   "overstated": 0.9562545568169982,
   "snow": 0.9562545568169982,
   "institute": -0.6128528278304344,
   "district": 0.9562545568169982,
   "keeps": 0.05707738777210707,
   "unique": -2.5381731069680242,
   "yeah": 0.029684407874179773,
   "country": 0.9561504009998958,
   "prison": 0.9561504009998958,
   "trims": 0.9561504009998958,
   "platform": 0.9561504009998958,
   "shelfdesk": 0.9561504009998958,
   "iron": -0.005832725757733526,
   "homey": 1.5082803874596395,
   "conditioner": 0.0069784397458598066,
   "clunked": 0.9561504009998958,
   "whatsoever": -0.1313404853661077,
   "writing": -0.03041349859389647,
   "team": 0.9245911884178731,
   "personable": -0.9558379335485887,
   "mundane": -0.9558379335485887,
   "pleasureable": -0.9558379335485887,
   "product": -0.40287470055202584,
   "sofie": -0.9558379335485887,
   "smooth": -0.9558379335485887,
   "shall": -0.9558379335485887,
   "month": -1.025934798458494,
   "p": -0.9558379335485887,
   "grady": -0.9558379335485887,
   "luxuary": -0.9554213102801792,
   "anticipated": 0.7905426518071035,
   "coworker": -0.939693781897719,
   "boy": -1.8819914592229976,
   "impressing": 0.9550046870117697,
   "miserably": 0.9550046870117697,
   "honor": 2.765753567336736,
   "requests": 4.945214040204146,
   "expressed": 0.9550046870117697,
   "occasion": 0.9508384543276742,
   "wouldve": 1.4985938964691177,
   "required": 1.6464951567545048,
   "mistakes": 1.866159775023435,
   "functioning": 0.9550046870117697,
   "ie": 2.604624518279346,
   "condescending": 0.6133736069159463,
   "cared": 0.9550046870117697,
   "hampon": 0.9550046870117697,
   "screwed": 0.9550046870117697,
   "vouchers": 0.9550046870117697,
   "lord": 0.9550046870117697,
   "guys": 4.498385584834913,
   "housekeepers": 0.9550046870117697,
   "wonderfully": -1.1217581501926883,
   "perhaps": 3.584314133944381,
   "school": 1.6464951567545048,
   "avoided": 2.7432559108426204,
   "abysmally": 0.9550046870117697,
   "watresses": 0.9550046870117697,
   "upward": 0.9550046870117697,
   "juice": 1.9100093740235393,
   "hated": 1.6462868451202999,
   "lacking": 1.0007290907197166,
   "muffin": 0.9550046870117697,
   "croissant": 0.9550046870117697,
   "cinnamon": 0.9550046870117697,
   "laughable": 0.9550046870117697,
   "toast": 3.6209769815644206,
   "spare": 0.9550046870117697,
   "tasty": 2.213623580876992,
   "bend": 0.9550046870117697,
   "backwards": 1.8076242058118945,
   "crumble": 0.9550046870117697,
   "crumbled": 0.9550046870117697,
   "opinions": 0.9550046870117697,
   "headquarters": -0.5535881678991772,
   "hurried": 0.9546922195604625,
   "blower": 0.9546922195604625,
   "blew": 2.623893344443287,
   "freezing": 1.8281429017810644,
   "cream": 0.9546922195604625,
   "range": 0.21414435996250392,
   "pushed": 0.9543797521091553,
   "button": 1.779085511925841,
   "margarita": 0.9543797521091553,
   "wanst": 0.9543797521091553,
   "drinking": 0.9543797521091553,
   "pregnant": 0.9543797521091553,
   "known": 0.01551921674825539,
   "tap": 0.9543797521091553,
   "selected": -0.7511717529424018,
   "proximity": -1.5085928549109469,
   "retrospect": -1.5085928549109469,
   "phrase": -1.5085928549109469,
   "apply": -1.5085928549109469,
   "offering": -0.5624414123528799,
   "timetable": -1.5085928549109469,
   "speak": -0.6233725653577753,
   "spanish": -1.5085928549109469,
   "presence": -1.5085928549109469,
   "hung": -0.9011561295698365,
   "placing": -1.5085928549109469,
   "unwilling": -0.5627538798041871,
   "compromise": -1.5085928549109469,
   "mumbai": -1.5085928549109469,
   "receive": -0.8511613373606917,
   "adult": 0.953754817206541,
   "minimally": 0.953754817206541,
   "unsure": 0.953754817206541,
   "gets": 0.5858764712009166,
   "jaded": 0.953754817206541,
   "needing": 0.0836371211332153,
   "lift": -0.42193521508176235,
   "updated": 0.9345901468597021,
   "tends": 0.3820435371315488,
   "seedy": 0.953754817206541,
   "suggestion": 0.953754817206541,
   "il": 0.953754817206541,
   "getnot": 0.953754817206541,
   "interested": -0.9204249557337777,
   "knowledgable": -0.9535465055723362,
   "designed": -3.65982710134361,
   "realized": 3.2678887615873347,
   "therefore": 1.8838662639308406,
   "basement": 1.9062597646078534,
   "bleak": 0.9531298823039267,
   "meeventually": 0.9531298823039267,
   "grumpy": 0.9531298823039267,
   "maintanance": 0.9531298823039267,
   "complicated": 0.016560774919279243,
   "btw": 2.6223310071867516,
   "print": 2.6605561920633267,
   "pages": 0.9531298823039267,
   "buy": 0.8230392667430476,
   "printing": 0.9531298823039267,
   "anyway": 1.703364232892407,
   "charging": 5.529528174148526,
   "surprise": 2.169253202791376,
   "declined": 0.9531298823039267,
   "sterile": 0.9531298823039267,
   "oppertunity": -0.9519841683158005,
   "cramp": -0.9519841683158005,
   "sundecks": -1.8418914696385793,
   "tan": -0.9519841683158005,
   "plesant": -0.951880012498698,
   "decorum": -0.951880012498698,
   "recomend": -1.7277366940943653,
   "definitly": -3.1059264659931256,
   "clientel": -3.1059264659931256,
   "facing": 3.627642953858973,
   "original": 0.08311634204770336,
   "overflowed": 0.9513592334131862,
   "creating": 0.9513592334131862,
   "unsanitary": 0.9513592334131862,
   "flood": 1.9027184668263724,
   "smaller": 4.960629101135298,
   "darker": 0.9513592334131862,
   "mattresses": 2.620664514113113,
   "softer": 0.9513592334131862,
   "form": 1.8625143214248516,
   "payment": -1.478908447036767,
   "differed": 0.9513592334131862,
   "process": 0.4779710446828455,
   "van": 0.9513592334131862,
   "passengers": 0.9513592334131862,
   "recompense": 0.9513592334131862,
   "suburbs": 0.017289865638995938,
   "bat": -0.9508384543276742,
   "musty": -4.322883033017394,
   "hang": -0.019685449432350798,
   "entirety": -0.9508384543276742,
   "dusty": -0.0814498489740652,
   "attic": -0.9508384543276742,
   "sat": -0.799916675346318,
   "turns": -1.0212477866888865,
   "connected": 1.506197271117592,
   "changing": -1.5926465993125716,
   "channel": -2.620352046661806,
   "static": -0.9508384543276742,
   "remote": -0.865326528486616,
   "gotten": 0.8420997812727841,
   "worse": -2.18383501718571,
   "explanation": -0.9508384543276742,
   "knowledgeable": -1.407249244870326,
   "takes": -0.0005207790855119259,
   "aspects": -0.21466513904801582,
   "warmer": -0.949171961254036,
   "colder": -0.949171961254036,
   "download": -0.949171961254036,
   "powerpoint": -0.949171961254036,
   "ungodly": -0.949171961254036,
   "barely": -1.0237475262993438,
   "dialup": -0.949171961254036,
   "starbucks": -6.564316217060723,
   "effectively": 0.9488594938027288,
   "adding": 1.4100614519320904,
   "works": 0.9488594938027288,
   "fingerprints": -0.9487553379856265,
   "funky": 1.0594729715654618,
   "parkingvalet": -0.9487553379856265,
   "consuming": -0.9487553379856265,
   "skip": -0.9487553379856265,
   "proteinless": -0.9487553379856265,
   "woopee": -0.9487553379856265,
   "privilege": -0.9487553379856265,
   "wash": -0.9827101343610041,
   "happier": -0.9487553379856265,
   "atrocious": -0.9471930007290907,
   "story": -0.09592750755129674,
   "californians": -0.9471930007290907,
   "students": -0.9471930007290907,
   "university": -0.9471930007290907,
   "revisit": -1.8943860014581815,
   "frequented": -0.9471930007290907,
   "falling": -1.2489324028747006,
   "lodging": -0.9471930007290907,
   "intend": -0.9471930007290907,
   "researching": -0.9471930007290907,
   "prepare": -0.4503697531507135,
   "cockroach": -0.9471930007290907,
   "indifferent": -2.6423289240704095,
   "chocolates": -0.9471930007290907,
   "dollar": -0.928340797833559,
   "suffice": -0.12248724091240495,
   "poorlymanaged": -0.9471930007290907,
   "shameful": -0.9471930007290907,
   "mixed": 1.8348088740756172,
   "splendido": 0.9470888449119883,
   "villa": 0.9470888449119883,
   "deste": 0.9470888449119883,
   "claim": 0.10592646599312572,
   "seasons": 4.496406624309968,
   "comfy": -0.1559212582022706,
   "round": 0.10238516821164462,
   "stacked": 0.9470888449119883,
   "indeed": -0.8731382147692949,
   "fault": 2.7262785126549316,
   "tout": -0.9466722216435788,
   "destination": -1.8933444432871576,
   "solid": -1.700343714196438,
   "happen": -1.0620768669930216,
   "glitch": -0.18925111967503386,
   "royal": 0.08811582126861785,
   "orchid": 0.9461514425580668,
   "bangkok": 0.9461514425580668,
   "restful": -0.8319966670138528,
   "custom": 0.9461514425580668,
   "omelettes": 0.9461514425580668,
   "crepes": 0.9461514425580668,
   "french": 0.9461514425580668,
   "prepaid": 0.999479220914488,
   "towel": 2.608686595146339,
   "bathtubshower": 0.9461514425580668,
   "combination": -0.5984793250703051,
   "worn": 2.2496614935944175,
   "plumbing": 0.9461514425580668,
   "sets": 1.3919383397562752,
   "slammed": 0.016977398187688782,
   "noisily": 0.9461514425580668,
   "nearest": 0.9461514425580668,
   "lstation": 0.9461514425580668,
   "explain": 1.8540777002395583,
   "mercury": 0.9461514425580668,
   "theatre": 0.9461514425580668,
   "map": 1.7711696698260597,
   "link": 1.8923028851161336,
   "newspaper": 0.9461514425580668,
   "delivered": 5.820643682949693,
   "final": 2.7236746172273723,
   "billing": 2.7231538381418603,
   "folio": 0.9461514425580668,
   "operational": 0.9461514425580668,
   "boarding": 1.7074263097594,
   "passes": 1.7074263097594,
   "printed": 0.07540881158212687,
   "debris": -0.9459431309238621,
   "adequate": -2.678783460056244,
   "enjoyment": -0.9459431309238621,
   "tremendously": 0.9458389751067597,
   "computerized": 0.9458389751067597,
   "self": 2.58296010832205,
   "non": -0.8016873242370586,
   "allergic": 0.9458389751067597,
   "clearly": 4.6122278929278195,
   "seated": 0.9458389751067597,
   "server": 0.9458389751067597,
   "forty": 0.9458389751067597,
   "greatest": -0.9455265076554525,
   "locations": -2.082491407145089,
   "districti": -0.9455265076554525,
   "layouts": -0.9455265076554525,
   "kitchen": 3.623268409540673,
   "fully": -0.9455265076554525,
   "equipted": -0.9455265076554525,
   "heated": -2.4923445474429746,
   "feeling": 2.2961149880220812,
   "larger": 4.939485470263515,
   "n": 2.433496510780127,
   "prefer": -3.0644724507863765,
   "satisfication": -2.535985834808874,
   "condition": -2.535985834808874,
   "figured": -1.7322153942297678,
   "recognized": -2.535985834808874,
   "initially": 1.790438495990001,
   "dated": 0.9457348192896573,
   "damaged": 1.790438495990001,
   "older": 5.994063118425164,
   "allowing": 1.790438495990001,
   "surrounding": 3.093844391209249,
   "departing": 2.7015935840016665,
   "doorways": 1.790438495990001,
   "narrow": 2.2550775960837415,
   "claustrophobic": 1.790438495990001,
   "bugsi": 0.9449015727528383,
   "bites": 0.04489115717112801,
   "itches": 0.9449015727528383,
   "wise": 0.9449015727528383,
   "chicken": 4.613581918550151,
   "lunch": 2.787105509842725,
   "saving": 2.420477033642329,
   "differently": 0.9449015727528383,
   "underlying": 0.9449015727528383,
   "filet": 2.8347047182585148,
   "mignon": 2.8347047182585148,
   "crab": 1.8898031455056765,
   "cake": 0.9449015727528383,
   "sounds": 1.8255390063535049,
   "thickness": 0.9449015727528383,
   "tough": 0.9449015727528383,
   "suppose": 1.071659202166441,
   "tenderest": 0.9449015727528383,
   "cow": 0.9449015727528383,
   "cakes": 1.7981460264555775,
   "salty": 0.9449015727528383,
   "portions": 0.9449015727528383,
   "blase": 0.9449015727528383,
   "burger": -0.6243099677116968,
   "substitute": 0.9449015727528383,
   "palms": 1.4095406728465785,
   "dessert": 0.16873242370586397,
   "meantime": 1.4884907822101865,
   "straight": 1.497864805749401,
   "washerdryer": 0.9449015727528383,
   "disinfect": 0.9449015727528383,
   "strip": 0.9449015727528383,
   "damn": 1.8357462764295387,
   "itchin": 0.9449015727528383,
   "bathrobes": 0.944276637850224,
   "listed": -0.5999375065097385,
   "sony": 0.944276637850224,
   "lamp": -1.6883657952296636,
   "snacks": -2.4813040308301217,
   "museums": -4.079158420997812,
   "offerif": -0.9434433913134048,
   "comparable": 1.6862826788876157,
   "olympia": 1.6862826788876157,
   "seattle": 1.6862826788876157,
   "inspiring": 1.6862826788876157,
   "disappointment": 1.6909696906572231,
   "inadequate": 2.5942089365691072,
   "hardwire": 1.6862826788876157,
   "wire": 1.6862826788876157,
   "pleasantly": 1.7314863035100512,
   "remembered": 1.6862826788876157,
   "covers": 1.5552546609728153,
   "intense": 2.8505364024580775,
   "trump": 2.5052598687636705,
   "facility": 1.0463493386105613,
   "friendliness": -0.9421935215081763,
   "genuine": -1.5139048015831684,
   "fake": -0.04103739193833976,
   "lights": -0.33027809603166336,
   "sparkled": -0.9421935215081763,
   "stole": -0.9421935215081763,
   "amazingly": -0.9421935215081763,
   "nowhere": -1.2776794083949587,
   "compares": -0.9421935215081763,
   "twonight": 1.7835642120612436,
   "accomplished": 1.7835642120612436,
   "signs": 1.5750442662222686,
   "detract": 1.7835642120612436,
   "adds": 1.7835642120612436,
   "homelike": 1.7835642120612436,
   "attending": 0.956462868451203,
   "mariott": 0.9414644307884595,
   "shared": 2.8474117279450057,
   "default": 0.9414644307884595,
   "fan": 1.8493906884699511,
   "blackgrey": 0.9414644307884595,
   "vibe": 0.5531715446307677,
   "cheesy": 0.9414644307884595,
   "features": -0.8189771898760546,
   "intact": 0.9414644307884595,
   "stucture": 0.9414644307884595,
   "upbeat": 0.9414644307884595,
   "consierge": 2.78252265389022,
   "news": 2.590875950421831,
   "drank": 0.9414644307884595,
   "dock": 2.6858660556192064,
   "suitcase": 0.9414644307884595,
   "contacting": 0.18779293823560045,
   "transport": 0.9414644307884595,
   "wasgreat": 0.9414644307884595,
   "site": 2.0542651807103427,
   "faucets": 0.9408394958858453,
   "leaked": 1.8497031559212582,
   "ceiling": 1.0304134985938964,
   "fire": -0.3806895115092178,
   "pays": 0.9408394958858453,
   "passable": -0.9404228726174357,
   "youd": -5.282262264347464,
   "theyd": -2.595354650557234,
   "allow": 0.3229871888344964,
   "honored": -0.9404228726174357,
   "arguing": -0.7571086345172378,
   "resolution": -0.9404228726174357,
   "responses": -0.9404228726174357,
   "letters": -0.9404228726174357,
   "exemplary": -1.7516925320279138,
   "chef": -0.1144672429955213,
   "seafood": -2.6764920320799916,
   "shrimp": -0.9394854702635143,
   "aside": -1.5111967503385064,
   "bang": -0.9394854702635143,
   "anybody": -0.9394854702635143,
   "stinky": 0.9393813144464118,
   "fair": 1.8473075721279033,
   "hurt": 0.9393813144464118,
   "hungry": -1.6760754088115821,
   "efficiently": -1.7781481095719196,
   "bellhop": -3.1101968544943235,
   "steaks": -0.40558275179668785,
   "delighted": -0.8702218518904281,
   "replenished": -1.0207270076033748,
   "turning": -2.6505572336214978,
   "kudos": -1.7781481095719196,
   "rolled": -0.9388605353608999,
   "eyes": -2.378814706801375,
